{"learner":{"attributes":{"scikit_learn":"{\"_estimator_type\": \"classifier\"}"},"feature_names":["amt","trans_hour","city_pop","distance_to_merchant"],"feature_types":["float","int","int","float"],"gradient_booster":{"model":{"gbtree_model_param":{"num_parallel_tree":"1","num_trees":"100"},"iteration_indptr":[0,1,2,3,4,5,6,7,8,9,10,11,12,13,14,15,16,17,18,19,20,21,22,23,24,25,26,27,28,29,30,31,32,33,34,35,36,37,38,39,40,41,42,43,44,45,46,47,48,49,50,51,52,53,54,55,56,57,58,59,60,61,62,63,64,65,66,67,68,69,70,71,72,73,74,75,76,77,78,79,80,81,82,83,84,85,86,87,88,89,90,91,92,93,94,95,96,97,98,99,100],"tree_info":[0,0,0,0,0,0,0,0,0,0,0,0,0,0,0,0,0,0,0,0,0,0,0,0,0,0,0,0,0,0,0,0,0,0,0,0,0,0,0,0,0,0,0,0,0,0,0,0,0,0,0,0,0,0,0,0,0,0,0,0,0,0,0,0,0,0,0,0,0,0,0,0,0,0,0,0,0,0,0,0,0,0,0,0,0,0,0,0,0,0,0,0,0,0,0,0,0,0,0,0],"trees":[{"base_weights":[-7.437304E-8,-4.3329588E-1,5.140638E1,-6.9958067E-1,1.2490082E1,2.4443216E1,8.795945E0,-8.1177276E-1,3.0874288E-1,4.3592896E1,5.20395E0,4.514131E0,1.4321574E1,-6.799253E-2,-9.399926E-1,1.804057E-1,7.650281E-1,5.9594398E0,8.9821875E-1,1.7124302E0,2.1349382E0,5.2547234E-1,1.739595E1,2.3512282E0,-8.547036E-1,-9.442036E-1,1.1293279E-1,9.306283E-1,-4.896959E-1,5.29859E0,-4.8128653E-1,2.0467298E0,5.633117E-1,4.169353E-2,1.0109143E0,-9.560117E-2,5.1657486E-1,-8.555221E-2,-9.968347E-2,-5.960988E-2,4.507234E-2,-1.903849E-2,5.5186236E-1,-7.192751E-2,3.3653926E-2,9.7866374E-1,1.5551244E-1,7.749489E-3,-8.205932E-2],"categories":[],"categories_nodes":[],"categories_segments":[],"categories_sizes":[],"default_left":[0,0,0,0,0,0,0,0,0,0,0,0,0,0,0,0,0,0,0,0,0,0,0,0,0,0,0,0,0,0,0,0,0,0,0,0,0,0,0,0,0,0,0,0,0,0,0,0,0],"id":0,"left_children":[1,3,5,7,9,11,-1,13,15,17,19,-1,21,23,25,27,-1,-1,-1,29,-1,-1,31,33,35,37,39,41,43,45,47,-1,-1,-1,-1,-1,-1,-1,-1,-1,-1,-1,-1,-1,-1,-1,-1,-1,-1],"loss_changes":[4.0166434E4,6.1624746E3,1.2705191E4,1.9856555E2,7.966531E3,1.460833E3,0E0,1.5040674E2,1.6468027E2,3.1900322E3,1.6787484E3,0E0,1.3772375E2,4.4561237E2,6.073242E0,8.805312E1,0E0,0E0,0E0,2.0792072E2,0E0,0E0,9.084412E1,8.5807104E2,1.12660706E2,5.4036865E0,1.766467E0,4.2563593E2,1.7824541E1,1.5264389E2,3.308356E0,0E0,0E0,0E0,0E0,0E0,0E0,0E0,0E0,0E0,0E0,0E0,0E0,0E0,0E0,0E0,0E0,0E0,0E0],"parents":[2147483647,0,0,1,1,2,2,3,3,4,4,5,5,7,7,8,8,9,9,10,10,12,12,13,13,14,14,15,15,19,19,22,22,23,23,24,24,25,25,26,26,27,27,28,28,29,29,30,30],"right_children":[2,4,6,8,10,12,-1,14,16,18,20,-1,22,24,26,28,-1,-1,-1,30,-1,-1,32,34,36,38,40,42,44,46,48,-1,-1,-1,-1,-1,-1,-1,-1,-1,-1,-1,-1,-1,-1,-1,-1,-1,-1],"split_conditions":[6.7179E2,2.7393E2,2.2E1,2.2E1,4E0,4E0,8.795945E0,4E0,2.1812E2,3.5827E2,2.2E1,4.514131E0,1.3E1,2.412E1,2.4711E2,2.679E1,7.650281E-1,5.9594398E0,8.9821875E-1,3.5827E2,2.1349382E0,5.2547234E-1,3.077E4,9.83E0,2.2993E2,2.48E1,6.0424507E-1,1.718E1,1.0064E2,1.2E1,1.252E3,2.0467298E0,5.633117E-1,4.169353E-2,1.0109143E0,-9.560117E-2,5.1657486E-1,-8.555221E-2,-9.968347E-2,-5.960988E-2,4.507234E-2,-1.903849E-2,5.5186236E-1,-7.192751E-2,3.3653926E-2,9.7866374E-1,1.5551244E-1,7.749489E-3,-8.205932E-2],"split_indices":[0,0,1,1,1,1,0,1,0,0,1,0,1,0,0,0,0,0,0,0,0,0,2,0,0,0,3,0,0,1,2,0,0,0,0,0,0,0,0,0,0,0,0,0,0,0,0,0,0],"split_type":[0,0,0,0,0,0,0,0,0,0,0,0,0,0,0,0,0,0,0,0,0,0,0,0,0,0,0,0,0,0,0,0,0,0,0,0,0,0,0,0,0,0,0,0,0,0,0,0,0],"sum_hessian":[1.8012742E3,1.7872017E3,1.4072454E1,1.7520468E3,3.5154865E1,9.0589075E0,5.0135465E0,1.5767979E3,1.7524896E2,5.7265506E0,2.9428316E1,1.8388007E0,7.220107E0,2.3207916E2,1.3447186E3,1.7324504E2,2.0039175E0,3.4224207E0,2.3041298E0,2.5105259E1,4.323058E0,2.5142784E0,4.7058287E0,5.6462437E1,1.7561671E2,1.339465E3,5.253716E0,8.155269E1,9.169236E1,8.99136E0,1.6113897E1,3.1447244E0,1.5611043E0,4.6037563E1,1.0424874E1,1.7353775E2,2.0789704E0,5.0530243E2,8.3416254E2,1.4485246E0,3.8051915E0,6.63094E1,1.5243282E1,7.185583E1,1.983653E1,3.354873E0,5.636487E0,6.3795123E0,9.7343855E0],"tree_param":{"num_deleted":"0","num_feature":"4","num_nodes":"49","size_leaf_vector":"1"}},{"base_weights":[-5.470894E-1,-7.0435476E-1,3.9126143E-1,-8.107524E-1,1.5281378E-1,9.449791E-1,-4.1339777E-2,-1.5274453E-1,-9.370695E-1,7.7856904E-1,-4.2618233E-1,-2.339514E-3,2.0752008E0,3.9370134E-1,-2.2245905E0,1.5892599E0,-9.216683E-1,-8.415476E-1,-9.949244E-1,-1.7500685E-1,3.5815036E0,-6.645446E-1,3.5899425E-1,-5.196506E-1,6.02621E-1,4.394125E0,1.0087324E0,-3.4560627E-1,1.2823399E0,2.0675151E0,-1.1075566E1,-8.295146E-1,3.605728E0,8.249291E-2,-9.563004E-1,-9.0664303E-1,-3.669104E-1,-9.975236E-2,-4.856717E-1,-7.432939E-1,5.6830823E-1,4.5675926E0,1.0069703E0,-3.3582842E-1,-9.313181E-1,1.1345725E0,-2.1509075E-1,5.925411E-1,-6.13368E-1,2.492625E-1,4.175348E-1,2.2965612E0,6.973025E-1,2.2036285E0,-5.154979E-1,-7.1522313E-1,9.6112895E-1,3.7152165E-1,1.8849425E0,3.397544E0,1.2212203E0,-3.6203498E-1,-1.1993142E0,-9.44447E-2,6.346558E-2,3.1461856E-1,5.6559354E-1,1.5118621E-1,-7.974722E-2,-9.908225E-2,-8.040062E-2,-3.2255393E-2,-9.420054E-2,3.199185E-2,-4.9678717E-2,-8.026909E-3,-7.211643E-2,-3.683511E-2,-9.640934E-2,1.0460191E-1,-2.3680815E-2,7.2059624E-2,4.867601E-1,-2.862562E-2,2.0225167E-1,-8.0617964E-2,2.2778426E-1,-9.7922534E-2,-3.4543954E-2,1.1158163E-2,2.2938311E-1,-4.3722432E-2,9.2030145E-2,-2.3929661E-2,1.1547207E-1,-9.599596E-2,-2.4760937E-2,-7.3488034E-2,6.232767E-2,3.509542E-2,4.9670768E-1,-2.1251721E-2,3.921986E-1,1.2998614E-1,-4.1817713E-1,3.068134E-1,-9.7932644E-2,2.5933507E-1,-2.3098161E-2,6.437932E-2,-8.2554124E-2,1.3979335E-1,2.7114946E-1,8.295258E-2,3.7962347E-1,4.527489E-2,2.9136905E-1],"categories":[],"categories_nodes":[],"categories_segments":[],"categories_sizes":[],"default_left":[0,0,0,0,0,0,0,0,0,0,0,0,0,0,0,0,0,0,0,0,0,0,0,0,0,0,0,0,0,0,0,0,0,0,0,0,0,0,0,0,0,0,0,0,0,0,0,0,0,0,0,0,0,0,0,0,0,0,0,0,0,0,0,0,0,0,0,0,0,0,0,0,0,0,0,0,0,0,0,0,0,0,0,0,0,0,0,0,0,0,0,0,0,0,0,0,0,0,0,0,0,0,0,0,0,0,0,0,0,0,0,0,0,0,0,0,0],"id":1,"left_children":[1,3,5,7,9,11,13,15,17,19,21,23,25,27,29,31,33,35,37,39,41,43,45,47,49,51,53,55,57,59,61,63,65,67,69,71,73,-1,75,77,79,81,83,85,87,89,91,93,95,-1,97,99,-1,101,103,105,107,109,111,113,115,-1,-1,-1,-1,-1,-1,-1,-1,-1,-1,-1,-1,-1,-1,-1,-1,-1,-1,-1,-1,-1,-1,-1,-1,-1,-1,-1,-1,-1,-1,-1,-1,-1,-1,-1,-1,-1,-1,-1,-1,-1,-1,-1,-1,-1,-1,-1,-1,-1,-1,-1,-1,-1,-1,-1,-1],"loss_changes":[2.8113715E2,1.4881805E2,6.563327E1,1.20421875E2,6.586347E1,1.2864339E2,1.4779976E2,3.1598026E2,5.886841E0,2.3390877E2,1.7942108E1,2.1080982E1,1.3105565E2,8.574256E1,1.0050217E3,3.554889E2,5.765991E0,1.4048096E1,5.1123047E-1,2.8334618E1,5.1765717E1,6.0812874E0,1.0341341E1,4.147975E0,9.821689E0,7.573306E1,7.184784E1,3.5298912E1,3.1778831E1,1.6395988E1,1.54104E1,6.2656E0,1.9515564E1,9.22111E0,3.489685E-2,8.1362915E0,5.3162766E0,0E0,4.9286568E-1,2.7809296E0,1.1477071E1,1.4693848E1,1.0339045E1,4.391533E1,7.7562714E-1,1.1372533E1,3.9011223E0,1.8337467E0,4.0697136E0,0E0,7.4486046E0,5.460115E1,0E0,9.197918E1,1.2438285E2,5.9393036E1,3.2173386E1,8.616898E0,1.0446457E1,3.5434647E0,1.5219439E1,0E0,0E0,0E0,0E0,0E0,0E0,0E0,0E0,0E0,0E0,0E0,0E0,0E0,0E0,0E0,0E0,0E0,0E0,0E0,0E0,0E0,0E0,0E0,0E0,0E0,0E0,0E0,0E0,0E0,0E0,0E0,0E0,0E0,0E0,0E0,0E0,0E0,0E0,0E0,0E0,0E0,0E0,0E0,0E0,0E0,0E0,0E0,0E0,0E0,0E0,0E0,0E0,0E0,0E0,0E0,0E0],"parents":[2147483647,0,0,1,1,2,2,3,3,4,4,5,5,6,6,7,7,8,8,9,9,10,10,11,11,12,12,13,13,14,14,15,15,16,16,17,17,18,18,19,19,20,20,21,21,22,22,23,23,24,24,25,25,26,26,27,27,28,28,29,29,30,30,31,31,32,32,33,33,34,34,35,35,36,36,38,38,39,39,40,40,41,41,42,42,43,43,44,44,45,45,46,46,47,47,48,48,50,50,51,51,53,53,54,54,55,55,56,56,57,57,58,58,59,59,60,60],"right_children":[2,4,6,8,10,12,14,16,18,20,22,24,26,28,30,32,34,36,38,40,42,44,46,48,50,52,54,56,58,60,62,64,66,68,70,72,74,-1,76,78,80,82,84,86,88,90,92,94,96,-1,98,100,-1,102,104,106,108,110,112,114,116,-1,-1,-1,-1,-1,-1,-1,-1,-1,-1,-1,-1,-1,-1,-1,-1,-1,-1,-1,-1,-1,-1,-1,-1,-1,-1,-1,-1,-1,-1,-1,-1,-1,-1,-1,-1,-1,-1,-1,-1,-1,-1,-1,-1,-1,-1,-1,-1,-1,-1,-1,-1,-1,-1,-1,-1],"split_conditions":[2.2993E2,2.2E1,2.501E3,4E0,2.48E1,4E0,2.2E1,2.155E1,2.48E1,1.718E1,1.0064E2,3.5827E2,3.5827E2,3.5827E2,6.7179E2,6.72E0,2.542E1,1.777E1,2.1812E2,7.16E0,2.217E1,5.238E1,1.2701E2,2.8437403E-1,5.1744E2,3.0621E2,2.2E1,5E0,9.993E3,3.0621E2,4.542E3,6.29E0,1.05638E5,1.804E3,1.0854E2,6E0,4.66E2,-9.975236E-2,5.989E3,1.923E3,1.101E1,3.6801457E-1,2.691E3,4.83E1,9.211E1,1.1505E2,2.0962E2,1.7444967E-1,8.0255574E-1,2.492625E-1,3.46491E-1,2.2E1,6.973025E-1,6.7179E2,6.7179E2,2.7393E2,1.1E1,6.713E3,5E0,5.76E3,5.1744E2,-3.6203498E-1,-1.1993142E0,-9.44447E-2,6.346558E-2,3.1461856E-1,5.6559354E-1,1.5118621E-1,-7.974722E-2,-9.908225E-2,-8.040062E-2,-3.2255393E-2,-9.420054E-2,3.199185E-2,-4.9678717E-2,-8.026909E-3,-7.211643E-2,-3.683511E-2,-9.640934E-2,1.0460191E-1,-2.3680815E-2,7.2059624E-2,4.867601E-1,-2.862562E-2,2.0225167E-1,-8.0617964E-2,2.2778426E-1,-9.7922534E-2,-3.4543954E-2,1.1158163E-2,2.2938311E-1,-4.3722432E-2,9.2030145E-2,-2.3929661E-2,1.1547207E-1,-9.599596E-2,-2.4760937E-2,-7.3488034E-2,6.232767E-2,3.509542E-2,4.9670768E-1,-2.1251721E-2,3.921986E-1,1.2998614E-1,-4.1817713E-1,3.068134E-1,-9.7932644E-2,2.5933507E-1,-2.3098161E-2,6.437932E-2,-8.2554124E-2,1.3979335E-1,2.7114946E-1,8.295258E-2,3.7962347E-1,4.527489E-2,2.9136905E-1],"split_indices":[0,1,2,1,0,1,1,0,0,0,0,0,0,0,0,0,0,0,0,0,0,0,0,3,0,0,1,1,2,0,2,0,2,2,0,1,2,0,2,2,0,3,2,0,0,0,0,3,3,0,3,1,0,0,0,0,1,2,1,2,0,0,0,0,0,0,0,0,0,0,0,0,0,0,0,0,0,0,0,0,0,0,0,0,0,0,0,0,0,0,0,0,0,0,0,0,0,0,0,0,0,0,0,0,0,0,0,0,0,0,0,0,0,0,0,0,0],"split_type":[0,0,0,0,0,0,0,0,0,0,0,0,0,0,0,0,0,0,0,0,0,0,0,0,0,0,0,0,0,0,0,0,0,0,0,0,0,0,0,0,0,0,0,0,0,0,0,0,0,0,0,0,0,0,0,0,0,0,0,0,0,0,0,0,0,0,0,0,0,0,0,0,0,0,0,0,0,0,0,0,0,0,0,0,0,0,0,0,0,0,0,0,0,0,0,0,0,0,0,0,0,0,0,0,0,0,0,0,0,0,0,0,0,0,0,0,0],"sum_hessian":[1.9022412E3,1.629406E3,2.728353E2,1.449534E3,1.7987186E2,1.1914656E2,1.5368872E2,2.3380615E2,1.2157279E3,8.6279655E1,9.359221E1,6.53609E1,5.3785656E1,1.2883612E2,2.4852602E1,7.127196E1,1.625342E2,4.6444608E2,7.5128186E2,6.507746E1,2.1202198E1,7.191426E1,2.1677942E1,3.530881E1,3.0052092E1,1.5960643E1,3.7825012E1,7.0660675E1,5.8175446E1,1.725267E1,7.599932E0,3.2671173E1,3.860079E1,5.3726144E0,1.5716158E2,4.076303E2,5.6815758E1,7.46513E2,4.768899E0,3.688091E1,2.819655E1,1.477065E1,6.431548E0,3.322883E1,3.8685436E1,8.805526E0,1.2872417E1,2.33038E0,3.297843E1,1.5684566E0,2.8483635E1,9.844269E0,6.1163735E0,2.0953287E1,1.6871727E1,5.5433647E1,1.522703E1,2.3807522E1,3.4367924E1,5.5366755E0,1.1715994E1,1.3748621E0,6.22507E0,3.0622383E1,2.0487907E0,3.3603355E1,4.997432E0,1.7735918E0,3.5990229E0,1.2363095E2,3.353063E1,2.3847994E1,3.8378232E2,8.802442E0,4.8013317E1,2.2449882E0,2.523911E0,1.4658081E1,2.222283E1,1.7508673E1,1.0687877E1,1.3146652E0,1.3455984E1,3.1448853E0,3.2866628E0,2.8747107E1,4.4817214E0,3.514061E1,3.5448248E0,5.2600408E0,3.5454848E0,1.1280382E1,1.5920346E0,1.1714166E0,1.1589633E0,1.6098743E1,1.6879688E1,3.925274E0,2.4558361E1,6.3496456E0,3.4946232E0,9.072692E0,1.1880595E1,1.1715994E1,5.155733E0,2.9243474E0,5.25093E1,5.930982E0,9.296048E0,1.977247E1,4.035052E0,2.3319328E1,1.1048595E1,1.1580634E0,4.378612E0,8.92918E0,2.7868142E0],"tree_param":{"num_deleted":"0","num_feature":"4","num_nodes":"117","size_leaf_vector":"1"}},{"base_weights":[-5.1179814E-1,-6.811846E-1,3.3602005E-1,-7.9445696E-1,1.4009382E-1,2.6230333E0,2.5029442E-1,-1.502573E-1,-9.300833E-1,6.274748E-1,-3.6132997E-1,4.7215238E-1,1.6441259E0,7.1239245E-1,-1.1696265E-1,1.1499231E0,-9.256617E-1,-8.267762E-1,-9.931522E-2,-2.171473E-1,2.2318466E0,-6.4197975E-1,4.120922E-1,-6.202474E-2,4.1352937E-1,-3.1032063E-2,1.4576447E0,2.9670182E-1,-1.4675193E0,-9.377797E-1,2.1250687E0,2.5231953E-4,-9.381178E-1,-8.9669555E-1,-3.4356615E-1,-7.2382635E-1,4.0925944E-1,2.4695387E0,2.7028844E-1,-3.139602E-1,-9.237176E-1,1.1770377E0,6.916784E-2,8.562785E-2,-4.2956963E-1,-5.263436E-1,5.366092E-1,3.1574323E0,7.3311704E-1,-4.088356E-1,1.1301234E0,1.2662138E0,-3.7002332E0,-9.697852E-2,-3.386381E-2,2.5685626E-1,1.2346299E-1,-9.507321E-2,-1.0806547E-2,-3.0113414E-2,-9.3506575E-2,2.8260076E-2,-4.7137823E-2,-3.460341E-2,-9.59317E-2,8.5416175E-2,-5.866867E-2,1.4834373E-1,2.7359423E-1,-5.980001E-2,8.412249E-2,-7.894942E-2,1.7164181E-1,-9.758435E-2,-3.2750536E-2,-6.417042E-3,1.6727702E-1,-1.8829321E-2,8.196711E-2,4.9019124E-2,-7.6757774E-2,-9.96658E-2,-2.00835E-2,3.0113754E-1,3.3741307E-2,6.5666534E-2,3.3092198E-1,1.6106543E-1,-3.7507445E-2,-7.317128E-2,1.1135683E-1,3.6620103E-2,1.6016398E-1,8.618409E-2,2.5594223E-1,-5.128748E-1,-2.908771E-1],"categories":[],"categories_nodes":[],"categories_segments":[],"categories_sizes":[],"default_left":[0,0,0,0,0,0,0,0,0,0,0,0,0,0,0,0,0,0,0,0,0,0,0,0,0,0,0,0,0,0,0,0,0,0,0,0,0,0,0,0,0,0,0,0,0,0,0,0,0,0,0,0,0,0,0,0,0,0,0,0,0,0,0,0,0,0,0,0,0,0,0,0,0,0,0,0,0,0,0,0,0,0,0,0,0,0,0,0,0,0,0,0,0,0,0,0,0],"id":2,"left_children":[1,3,5,7,9,11,13,15,17,19,21,-1,23,25,27,29,31,33,-1,35,37,39,41,43,-1,45,47,49,51,53,55,-1,57,59,61,63,65,67,69,71,73,75,77,-1,79,81,83,85,87,89,91,93,95,-1,-1,-1,-1,-1,-1,-1,-1,-1,-1,-1,-1,-1,-1,-1,-1,-1,-1,-1,-1,-1,-1,-1,-1,-1,-1,-1,-1,-1,-1,-1,-1,-1,-1,-1,-1,-1,-1,-1,-1,-1,-1,-1,-1],"loss_changes":[2.648147E2,1.4299646E2,5.9624657E1,1.1780365E2,4.5929874E1,1.4840317E1,5.0565994E1,2.3896065E2,6.4432373E0,1.294891E2,2.041068E1,0E0,3.866819E1,7.3104065E1,9.351141E1,1.8236655E2,1.7177429E0,1.4173157E1,0E0,2.037995E1,1.4682175E1,6.039751E0,6.5607157E0,2.5107453E0,0E0,1.9118153E1,7.881047E1,7.5944244E1,2.4414185E2,2.2581863E-1,2.0798645E1,0E0,1.4302216E0,8.260834E0,4.59911E0,2.8124352E0,1.3322097E1,3.6229706E0,2.8236215E0,3.3373245E1,8.09494E-1,4.891513E0,3.737819E0,0E0,1.9929222E0,5.3540926E0,1.4616983E1,5.184906E0,4.678576E1,3.5347343E1,2.070736E1,7.406868E0,9.785248E0,0E0,0E0,0E0,0E0,0E0,0E0,0E0,0E0,0E0,0E0,0E0,0E0,0E0,0E0,0E0,0E0,0E0,0E0,0E0,0E0,0E0,0E0,0E0,0E0,0E0,0E0,0E0,0E0,0E0,0E0,0E0,0E0,0E0,0E0,0E0,0E0,0E0,0E0,0E0,0E0,0E0,0E0,0E0,0E0],"parents":[2147483647,0,0,1,1,2,2,3,3,4,4,5,5,6,6,7,7,8,8,9,9,10,10,12,12,13,13,14,14,15,15,16,16,17,17,19,19,20,20,21,21,22,22,23,23,25,25,26,26,27,27,28,28,29,29,30,30,32,32,33,33,34,34,35,35,36,36,37,37,38,38,39,39,40,40,41,41,42,42,44,44,45,45,46,46,47,47,48,48,49,49,50,50,51,51,52,52],"right_children":[2,4,6,8,10,12,14,16,18,20,22,-1,24,26,28,30,32,34,-1,36,38,40,42,44,-1,46,48,50,52,54,56,-1,58,60,62,64,66,68,70,72,74,76,78,-1,80,82,84,86,88,90,92,94,96,-1,-1,-1,-1,-1,-1,-1,-1,-1,-1,-1,-1,-1,-1,-1,-1,-1,-1,-1,-1,-1,-1,-1,-1,-1,-1,-1,-1,-1,-1,-1,-1,-1,-1,-1,-1,-1,-1,-1,-1,-1,-1,-1,-1],"split_conditions":[2.4711E2,2.2E1,2.7393E2,4E0,2.48E1,4E0,2.501E3,2.345E1,2.48E1,1.598E1,1.0064E2,4.7215238E-1,2.1E1,4E0,2.2E1,6.29E0,2.542E1,1.777E1,-9.931522E-2,7.16E0,2.345E1,5.238E1,1.126E3,9E0,4.1352937E-1,3.5827E2,3.5827E2,4.4459E2,6.7179E2,5.86E0,1.373E1,2.5231953E-4,2.2993E2,6E0,4.66E2,1.923E3,1.101E1,1.842E1,1.571E3,4.83E1,9.211E1,2.71E2,1.0120809E0,8.562785E-2,1.412E3,3.0621E2,4.4459E2,1.23E2,2.2E1,6E0,9.993E3,4.13574E5,9.521E3,-9.697852E-2,-3.386381E-2,2.5685626E-1,1.2346299E-1,-9.507321E-2,-1.0806547E-2,-3.0113414E-2,-9.3506575E-2,2.8260076E-2,-4.7137823E-2,-3.460341E-2,-9.59317E-2,8.5416175E-2,-5.866867E-2,1.4834373E-1,2.7359423E-1,-5.980001E-2,8.412249E-2,-7.894942E-2,1.7164181E-1,-9.758435E-2,-3.2750536E-2,-6.417042E-3,1.6727702E-1,-1.8829321E-2,8.196711E-2,4.9019124E-2,-7.6757774E-2,-9.96658E-2,-2.00835E-2,3.0113754E-1,3.3741307E-2,6.5666534E-2,3.3092198E-1,1.6106543E-1,-3.7507445E-2,-7.317128E-2,1.1135683E-1,3.6620103E-2,1.6016398E-1,8.618409E-2,2.5594223E-1,-5.128748E-1,-2.908771E-1],"split_indices":[0,1,0,1,0,1,2,0,0,0,0,0,1,1,1,0,0,0,0,0,0,0,2,1,0,0,0,0,0,0,0,0,0,1,2,2,0,0,2,0,0,2,3,0,2,0,0,2,1,1,2,2,2,0,0,0,0,0,0,0,0,0,0,0,0,0,0,0,0,0,0,0,0,0,0,0,0,0,0,0,0,0,0,0,0,0,0,0,0,0,0,0,0,0,0,0,0],"split_type":[0,0,0,0,0,0,0,0,0,0,0,0,0,0,0,0,0,0,0,0,0,0,0,0,0,0,0,0,0,0,0,0,0,0,0,0,0,0,0,0,0,0,0,0,0,0,0,0,0,0,0,0,0,0,0,0,0,0,0,0,0,0,0,0,0,0,0,0,0,0,0,0,0,0,0,0,0,0,0,0,0,0,0,0,0,0,0,0,0,0,0,0,0,0,0,0,0],"sum_hessian":[1.8414053E3,1.5349355E3,3.0646973E2,1.3489222E3,1.8601337E2,1.000321E1,2.9646652E2,2.3496939E2,1.1139528E3,9.420007E1,9.181329E1,1.9658165E0,8.037394E0,1.3086589E2,1.6560065E2,8.7600266E1,1.4736913E2,4.2761987E2,6.8633295E2,6.2278294E1,3.1921778E1,6.749243E1,2.432086E1,5.3490434E0,2.6883504E0,6.599305E1,6.487284E1,1.273689E2,3.8231743E1,2.7902256E1,5.969801E1,1.9620463E0,1.4540707E2,3.7281824E2,5.480163E1,3.4343494E1,2.7934801E1,2.8240734E1,3.6810434E0,3.2161762E1,3.5330673E1,6.7752566E0,1.7545603E1,1.148876E0,4.200167E0,3.528066E1,3.071239E1,1.838427E1,4.648857E1,6.925238E1,5.8116516E1,1.7382053E1,2.084969E1,2.5900078E1,2.0021794E0,3.8592133E1,2.1105877E1,1.430872E2,2.3198748E0,2.3101234E1,3.49717E2,9.084498E0,4.571713E1,1.4135558E1,2.0207935E1,1.9407553E1,8.527248E0,7.40378E0,2.0836954E1,1.441455E0,2.2395885E0,2.6553772E1,5.6079884E0,3.190457E1,3.4261014E0,2.1821566E0,4.5931E0,1.3621755E1,3.9238489E0,1.0077426E0,3.1924248E0,1.3587203E1,2.1693455E1,1.2362217E0,2.947617E1,1.3567867E0,1.7027483E1,2.5691212E1,2.079736E1,5.756347E1,1.16889105E1,2.2858767E1,3.525775E1,1.4511038E1,2.8710146E0,5.479541E0,1.5370149E1],"tree_param":{"num_deleted":"0","num_feature":"4","num_nodes":"97","size_leaf_vector":"1"}},{"base_weights":[-4.82379E-1,-6.595941E-1,2.7916878E-1,-7.7752197E-1,1.188907E-1,1.9798783E0,2.0815016E-1,-1.4521934E-1,-9.2222303E-1,5.218506E-1,-3.3883244E-1,2.7268672E-1,2.276002E0,5.891605E-1,-9.22724E-2,8.899827E-1,-9.30994E-1,-8.111199E-1,-9.912128E-2,-2.0343521E-1,1.6258917E0,-6.190512E-1,3.6385143E-1,-5.1916554E-3,4.7346618E-2,2.6037476E0,1.5701724E-2,-2.4613941E-2,1.1394298E0,2.555764E-1,-1.0532355E0,-9.307979E-1,1.5121906E0,-9.4473416E-1,-1.012893E-1,-9.755226E-2,-5.76459E-1,-7.036783E-1,3.5146984E-1,1.863369E0,6.167576E-1,-2.9324064E-1,-9.156187E-1,8.825429E-1,-1.6653687E-2,1.6624085E0,3.7509462E-1,-4.6540663E-1,4.8236772E-1,2.1920161E0,6.064895E-1,-3.5312086E-1,9.690422E-1,1.0487641E0,-2.4645505E0,-9.6553914E-2,-3.2351088E-2,1.7142126E-1,3.804828E-2,-9.86242E-2,-7.658576E-2,-5.7285734E-2,4.8822556E-2,3.780548E-2,-7.210503E-2,-3.244245E-2,-9.54256E-2,6.8932556E-2,-6.3954145E-2,2.9545358E-1,1.6022997E-1,1.7801338E-1,-1.0076952E-3,-7.719924E-2,1.3480225E-1,-9.722737E-2,-3.1019384E-2,1.7026946E-1,5.7649226E-3,-4.3189205E-2,1.0120642E-1,3.7390348E-1,3.283701E-4,-8.645206E-2,-1.7991466E-2,2.3844905E-1,3.0271417E-2,3.3595943E-1,1.8749242E-1,1.255729E-1,-3.416641E-2,-6.6528216E-2,8.338218E-2,4.2419713E-2,1.4581902E-1,-2.8932689E-2,1.2875907E-1,-3.019065E-1,-1.6397244E-1],"categories":[],"categories_nodes":[],"categories_segments":[],"categories_sizes":[],"default_left":[0,0,0,0,0,0,0,0,0,0,0,0,0,0,0,0,0,0,0,0,0,0,0,0,0,0,0,0,0,0,0,0,0,0,0,0,0,0,0,0,0,0,0,0,0,0,0,0,0,0,0,0,0,0,0,0,0,0,0,0,0,0,0,0,0,0,0,0,0,0,0,0,0,0,0,0,0,0,0,0,0,0,0,0,0,0,0,0,0,0,0,0,0,0,0,0,0,0,0],"id":3,"left_children":[1,3,5,7,9,11,13,15,17,19,21,23,25,27,29,31,33,35,-1,37,39,41,43,-1,-1,45,-1,47,49,51,53,55,57,59,61,-1,63,65,67,69,71,73,75,77,79,81,-1,83,85,87,89,91,93,95,97,-1,-1,-1,-1,-1,-1,-1,-1,-1,-1,-1,-1,-1,-1,-1,-1,-1,-1,-1,-1,-1,-1,-1,-1,-1,-1,-1,-1,-1,-1,-1,-1,-1,-1,-1,-1,-1,-1,-1,-1,-1,-1,-1,-1],"loss_changes":[2.3966196E2,1.3227203E2,4.01317E1,1.1428119E2,3.5272636E1,6.1222305E0,3.7065125E1,1.9122821E2,6.994629E0,8.167579E1,1.7886118E1,2.2712022E-1,7.390438E0,4.821891E1,6.099057E1,1.1641406E2,1.4268723E0,1.4686493E1,0E0,1.7512894E1,8.529579E0,5.9630165E0,5.185747E0,0E0,0E0,4.1981583E0,0E0,1.5516714E1,4.0886703E1,5.8614315E1,1.4638754E2,2.4618149E-1,1.6732971E1,2.1923828E-1,1.1958909E0,0E0,2.3083824E1,2.8306274E0,1.0537357E1,4.4385986E0,6.718663E0,2.63436E1,8.4025574E-1,7.415162E0,7.312262E0,2.4460295E1,0E0,4.0732765E0,1.0321445E1,2.924614E0,3.2034676E1,2.7653976E1,1.591589E1,6.8195114E0,8.450928E0,0E0,0E0,0E0,0E0,0E0,0E0,0E0,0E0,0E0,0E0,0E0,0E0,0E0,0E0,0E0,0E0,0E0,0E0,0E0,0E0,0E0,0E0,0E0,0E0,0E0,0E0,0E0,0E0,0E0,0E0,0E0,0E0,0E0,0E0,0E0,0E0,0E0,0E0,0E0,0E0,0E0,0E0,0E0,0E0],"parents":[2147483647,0,0,1,1,2,2,3,3,4,4,5,5,6,6,7,7,8,8,9,9,10,10,11,11,12,12,13,13,14,14,15,15,16,16,17,17,19,19,20,20,21,21,22,22,25,25,27,27,28,28,29,29,30,30,31,31,32,32,33,33,34,34,36,36,37,37,38,38,39,39,40,40,41,41,42,42,43,43,44,44,45,45,47,47,48,48,49,49,50,50,51,51,52,52,53,53,54,54],"right_children":[2,4,6,8,10,12,14,16,18,20,22,24,26,28,30,32,34,36,-1,38,40,42,44,-1,-1,46,-1,48,50,52,54,56,58,60,62,-1,64,66,68,70,72,74,76,78,80,82,-1,84,86,88,90,92,94,96,98,-1,-1,-1,-1,-1,-1,-1,-1,-1,-1,-1,-1,-1,-1,-1,-1,-1,-1,-1,-1,-1,-1,-1,-1,-1,-1,-1,-1,-1,-1,-1,-1,-1,-1,-1,-1,-1,-1,-1,-1,-1,-1,-1,-1],"split_conditions":[2.4711E2,2.2E1,2.7393E2,4E0,2.48E1,4.5801547E-1,2.501E3,2.542E1,2.48E1,1.598E1,1.0064E2,7.646E3,1.0796387E0,4E0,2.2E1,6.29E0,2.2993E2,8.18E0,-9.912128E-2,7.16E0,2.217E1,5.238E1,1.2701E2,-5.1916554E-3,4.7346618E-2,2.2E1,1.5701724E-2,3.5827E2,3.5827E2,4.4459E2,6.7179E2,5.86E0,1.903E1,1.0854E2,8.054541E-1,-9.755226E-2,1E1,1.923E3,1.152E1,4.5E2,6.286332E-1,4.83E1,9.211E1,2.501E3,2.0962E2,4E0,3.7509462E-1,3.0621E2,4.4459E2,3.812597E-1,2.2E1,4E0,2.0478E4,4.6355337E-1,8.0255574E-1,-9.6553914E-2,-3.2351088E-2,1.7142126E-1,3.804828E-2,-9.86242E-2,-7.658576E-2,-5.7285734E-2,4.8822556E-2,3.780548E-2,-7.210503E-2,-3.244245E-2,-9.54256E-2,6.8932556E-2,-6.3954145E-2,2.9545358E-1,1.6022997E-1,1.7801338E-1,-1.0076952E-3,-7.719924E-2,1.3480225E-1,-9.722737E-2,-3.1019384E-2,1.7026946E-1,5.7649226E-3,-4.3189205E-2,1.0120642E-1,3.7390348E-1,3.283701E-4,-8.645206E-2,-1.7991466E-2,2.3844905E-1,3.0271417E-2,3.3595943E-1,1.8749242E-1,1.255729E-1,-3.416641E-2,-6.6528216E-2,8.338218E-2,4.2419713E-2,1.4581902E-1,-2.8932689E-2,1.2875907E-1,-3.019065E-1,-1.6397244E-1],"split_indices":[0,1,0,1,0,3,2,0,0,0,0,2,3,1,1,0,0,0,0,0,0,0,0,0,0,1,0,0,0,0,0,0,0,0,3,0,1,2,0,2,3,0,0,2,0,1,0,0,0,3,1,1,2,3,3,0,0,0,0,0,0,0,0,0,0,0,0,0,0,0,0,0,0,0,0,0,0,0,0,0,0,0,0,0,0,0,0,0,0,0,0,0,0,0,0,0,0,0,0],"split_type":[0,0,0,0,0,0,0,0,0,0,0,0,0,0,0,0,0,0,0,0,0,0,0,0,0,0,0,0,0,0,0,0,0,0,0,0,0,0,0,0,0,0,0,0,0,0,0,0,0,0,0,0,0,0,0,0,0,0,0,0,0,0,0,0,0,0,0,0,0,0,0,0,0,0,0,0,0,0,0,0,0,0,0,0,0,0,0,0,0,0,0,0,0,0,0,0,0,0,0],"sum_hessian":[1.7734642E3,1.4387867E3,3.3467746E2,1.2495078E3,1.892789E2,1.233794E1,3.2233954E2,2.330685E2,1.01643933E3,1.0058663E2,8.869227E1,2.1076896E0,1.023025E1,1.4168576E2,1.8065378E2,1.0051479E2,1.325537E2,3.942631E2,6.221763E2,6.1198677E1,3.938796E1,6.3491802E1,2.5200468E1,1.0888132E0,1.0188766E0,8.6617565E0,1.5684942E0,6.742958E1,7.425618E1,1.3317957E2,4.747421E1,2.5473927E1,7.504087E1,1.3025793E2,2.2957532E0,2.2998158E2,1.642815E2,3.204354E1,2.9155136E1,3.1199373E1,8.188584E0,3.1201956E1,3.2289845E1,1.0105543E1,1.5094926E1,6.1030083E0,2.5587482E0,3.6113167E1,3.131641E1,2.3913212E1,5.0342964E1,7.213891E1,6.104065E1,1.9173807E1,2.8300404E1,2.3537489E1,1.9364378E0,6.3237576E1,1.1803293E1,1.0206136E2,2.8196579E1,1.2911699E0,1.0045835E0,2.139942E1,1.4288208E2,1.3661431E1,1.8382109E1,2.196966E1,7.1854763E0,4.031645E0,2.7167728E1,2.222972E0,5.9656124E0,2.4565813E1,6.636143E0,2.8972681E1,3.3171663E0,4.533734E0,5.5718093E0,1.1167407E1,3.9275196E0,2.153715E0,3.9492934E0,1.4214004E1,2.1899164E1,1.6434364E0,2.9672974E1,3.0580406E0,2.0855171E1,2.9689177E1,2.0653788E1,5.746527E1,1.4673641E1,2.9759638E1,3.1281013E1,2.8718789E0,1.630193E1,1.5332455E1,1.2967948E1],"tree_param":{"num_deleted":"0","num_feature":"4","num_nodes":"99","size_leaf_vector":"1"}},{"base_weights":[-4.5380825E-1,-6.373077E-1,2.3691632E-1,-2.806448E-1,-9.045002E-1,1.5770428E0,1.7662425E-1,-8.158013E-1,2.485463E-1,-9.7749615E-1,-3.1720138E-1,1.0270961E-2,1.7512935E0,7.288467E-1,2.5198933E-2,-9.575892E-1,-4.3959948E-1,1.3241773E0,-1.3402778E-1,-9.829126E-2,-5.992501E-1,-5.637685E-1,4.180937E-1,1.9507744E0,1.4599504E-2,3.861708E-3,1.3735155E0,2.4409246E-1,-5.575621E-1,-9.889566E-2,-7.1093976E-1,4.3405506E-1,-7.021889E-1,1.5455366E0,2.4065486E-1,-6.3483673E-1,9.3840986E-1,-9.134804E-2,-7.055062E-1,-2.7359506E-1,-8.0650455E-1,1.3011082E0,-1.3301049E-2,1.2492746E0,2.7857336E-1,-4.7716105E-1,6.007184E-1,4.0984106E-1,1.7767138E0,-1.194353E-1,8.990803E-1,1.0501789E0,-2.0175807E0,-7.7351324E-2,3.0006934E-2,1.1898174E-1,-2.143593E-2,-8.3101794E-2,5.8392625E-2,9.598773E-2,1.9189207E-1,1.6123004E-1,-9.0393275E-2,-7.849148E-2,-2.1600729E-2,2.4946494E-2,1.2713549E-1,-5.6568544E-2,4.9073104E-2,-1.0438777E-3,-7.829717E-2,-7.536836E-2,1.089435E-1,-9.684902E-2,-2.1334238E-2,2.0243339E-1,2.2058088E-2,-4.0870305E-2,8.579485E-2,2.3065965E-1,-3.0471003E-2,-8.513448E-4,-7.255314E-2,9.16198E-2,-1.1144804E-1,1.2482717E-1,-1.399093E-2,1.0278175E-1,2.2457717E-1,-5.9937567E-2,5.6289334E-2,3.6408693E-2,1.4342244E-1,-5.5665117E-2,1.292461E-1,-4.2318645E-1,-1.7453751E-1],"categories":[],"categories_nodes":[],"categories_segments":[],"categories_sizes":[],"default_left":[0,0,0,0,0,0,0,0,0,0,0,0,0,0,0,0,0,0,0,0,0,0,0,0,0,0,0,0,0,0,0,0,0,0,0,0,0,0,0,0,0,0,0,0,0,0,0,0,0,0,0,0,0,0,0,0,0,0,0,0,0,0,0,0,0,0,0,0,0,0,0,0,0,0,0,0,0,0,0,0,0,0,0,0,0,0,0,0,0,0,0,0,0,0,0,0,0],"id":4,"left_children":[1,3,5,7,9,11,13,15,17,19,21,-1,23,25,27,29,31,33,35,-1,37,39,41,43,-1,45,47,49,51,-1,53,55,57,59,61,63,65,67,69,71,73,75,77,79,-1,81,83,85,87,89,91,93,95,-1,-1,-1,-1,-1,-1,-1,-1,-1,-1,-1,-1,-1,-1,-1,-1,-1,-1,-1,-1,-1,-1,-1,-1,-1,-1,-1,-1,-1,-1,-1,-1,-1,-1,-1,-1,-1,-1,-1,-1,-1,-1,-1,-1],"loss_changes":[2.1693497E2,1.2855286E2,2.8787527E1,1.6455536E2,3.2798157E1,3.7665253E0,2.8861774E1,1.4982697E1,1.20569756E2,8.173218E-1,1.5982841E1,0E0,4.0944443E0,3.471521E1,3.4843765E1,9.129791E-1,1.88631E1,1.8060059E1,1.1699019E2,0E0,5.968046E-1,4.3908386E0,8.544706E0,3.5971718E0,0E0,1.0613358E1,1.4549484E1,4.736812E1,1.7722374E2,0E0,1.9480667E0,9.71936E0,1.085438E1,1.207193E1,2.378393E1,9.153713E0,1.5599552E1,1.1800646E0,5.294099E-1,2.132591E1,3.1693916E0,5.302911E0,5.8724036E0,1.4470682E1,0E0,2.3770094E0,9.946384E0,6.1198006E0,7.3241653E0,4.242644E1,1.9793747E1,1.4796886E1,1.638414E1,0E0,0E0,0E0,0E0,0E0,0E0,0E0,0E0,0E0,0E0,0E0,0E0,0E0,0E0,0E0,0E0,0E0,0E0,0E0,0E0,0E0,0E0,0E0,0E0,0E0,0E0,0E0,0E0,0E0,0E0,0E0,0E0,0E0,0E0,0E0,0E0,0E0,0E0,0E0,0E0,0E0,0E0,0E0,0E0],"parents":[2147483647,0,0,1,1,2,2,3,3,4,4,5,5,6,6,7,7,8,8,9,9,10,10,12,12,13,13,14,14,15,15,16,16,17,17,18,18,20,20,21,21,22,22,23,23,25,25,26,26,27,27,28,28,30,30,31,31,32,32,33,33,34,34,35,35,36,36,37,37,38,38,39,39,40,40,41,41,42,42,43,43,45,45,46,46,47,47,48,48,49,49,50,50,51,51,52,52],"right_children":[2,4,6,8,10,12,14,16,18,20,22,-1,24,26,28,30,32,34,36,-1,38,40,42,44,-1,46,48,50,52,-1,54,56,58,60,62,64,66,68,70,72,74,76,78,80,-1,82,84,86,88,90,92,94,96,-1,-1,-1,-1,-1,-1,-1,-1,-1,-1,-1,-1,-1,-1,-1,-1,-1,-1,-1,-1,-1,-1,-1,-1,-1,-1,-1,-1,-1,-1,-1,-1,-1,-1,-1,-1,-1,-1,-1,-1,-1,-1,-1,-1],"split_conditions":[2.4711E2,2.48E1,2.7393E2,8.18E0,2.2E1,4.0691525E-1,6.95E2,6.29E0,6E0,2.1812E2,1.1156E2,1.0270961E-2,1.0796387E0,4E0,2.2E1,2.2E1,4E0,1.903E1,2.2E1,-9.829126E-2,3E0,5.238E1,1.2701E2,2.2E1,1.4599504E-2,3.5827E2,6.0017306E-1,4E0,6.7179E2,-9.889566E-2,6E0,7.4122906E-1,2.3E1,9.98E0,2.148E3,1.903E1,1.598E1,8.2058305E-1,5.95E2,4.83E1,9.211E1,2.501E3,2.0962E2,9E0,2.7857336E-1,1.37E2,5.64E2,1.9E2,2.71E2,3.5827E2,6.7179E2,1.132E3,1.892E3,-7.7351324E-2,3.0006934E-2,1.1898174E-1,-2.143593E-2,-8.3101794E-2,5.8392625E-2,9.598773E-2,1.9189207E-1,1.6123004E-1,-9.0393275E-2,-7.849148E-2,-2.1600729E-2,2.4946494E-2,1.2713549E-1,-5.6568544E-2,4.9073104E-2,-1.0438777E-3,-7.829717E-2,-7.536836E-2,1.089435E-1,-9.684902E-2,-2.1334238E-2,2.0243339E-1,2.2058088E-2,-4.0870305E-2,8.579485E-2,2.3065965E-1,-3.0471003E-2,-8.513448E-4,-7.255314E-2,9.16198E-2,-1.1144804E-1,1.2482717E-1,-1.399093E-2,1.0278175E-1,2.2457717E-1,-5.9937567E-2,5.6289334E-2,3.6408693E-2,1.4342244E-1,-5.5665117E-2,1.292461E-1,-4.2318645E-1,-1.7453751E-1],"split_indices":[0,0,0,0,1,3,2,0,1,0,0,0,3,1,1,1,1,0,1,0,1,0,0,1,0,0,3,1,0,0,0,3,1,0,2,0,0,3,2,0,0,2,0,1,0,2,2,2,2,0,0,2,2,0,0,0,0,0,0,0,0,0,0,0,0,0,0,0,0,0,0,0,0,0,0,0,0,0,0,0,0,0,0,0,0,0,0,0,0,0,0,0,0,0,0,0,0],"split_type":[0,0,0,0,0,0,0,0,0,0,0,0,0,0,0,0,0,0,0,0,0,0,0,0,0,0,0,0,0,0,0,0,0,0,0,0,0,0,0,0,0,0,0,0,0,0,0,0,0,0,0,0,0,0,0,0,0,0,0,0,0,0,0,0,0,0,0,0,0,0,0,0,0,0,0,0,0,0,0,0,0,0,0,0,0,0,0,0,0,0,0,0,0,0,0,0,0],"sum_hessian":[1.7093593E3,1.3506261E3,3.587331E2,5.7934094E2,7.712852E2,1.43614235E1,3.4437167E2,2.8777765E2,2.915633E2,6.854282E2,8.5856964E1,1.6859604E0,1.2675464E1,7.328832E1,2.7108334E2,2.0788268E2,7.989497E1,7.58487E1,2.1571458E2,6.741755E2,1.1252728E1,6.44711E1,2.138587E1,1.1083031E1,1.5924324E0,3.4968853E1,3.831947E1,1.974859E2,7.359743E1,1.817582E2,2.6124481E1,1.8313063E1,6.158191E1,6.26277E1,1.3220998E1,1.4732468E2,6.8389915E1,2.2685945E0,8.984135E0,3.0334969E1,3.4136127E1,6.3572583E0,1.5028612E1,7.379378E0,3.703653E0,1.9474432E1,1.5494423E1,1.1898245E1,2.6421225E1,1.2752521E2,6.996069E1,3.5160336E1,3.8437096E1,2.482304E1,1.3014412E0,8.070957E0,1.02421055E1,5.6296585E1,5.285324E0,2.5773018E1,3.6854683E1,5.8281074E0,7.3928905E0,1.0781687E2,3.9507805E1,2.2852251E1,4.5537663E1,1.2655E0,1.0030946E0,1.014668E0,7.9694667E0,2.2764038E1,7.5709305E0,2.6316612E1,7.819516E0,3.2850308E0,3.0722275E0,1.0702405E1,4.3262067E0,4.103244E0,3.2761343E0,7.1040826E0,1.2370349E1,1.3480724E1,2.013698E0,4.208776E0,7.689469E0,1.1404335E1,1.501689E1,7.493709E1,5.258812E1,3.582557E1,3.4135124E1,4.4369125E0,3.0723423E1,2.6153884E0,3.582171E1],"tree_param":{"num_deleted":"0","num_feature":"4","num_nodes":"97","size_leaf_vector":"1"}},{"base_weights":[-4.259812E-1,-6.1939985E-1,1.8554077E-1,-2.634392E-1,-9.0955347E-1,6.585241E-1,6.0485717E-2,-7.9975086E-1,2.1430974E-1,-9.801643E-2,-3.5815752E-1,2.5116552E-2,1.1563606E0,-1.7619899E-1,1.0284049E-1,-9.5237714E-1,-4.151394E-1,1.0497887E0,-1.2506609E-1,-5.725531E-1,1.828344E-1,1.9910084E-1,-1.2077773E0,3.3453038E-1,1.4728885E0,2.4013132E-1,-4.4151875E-1,-9.867703E-2,-6.8971044E-1,3.775352E-1,-6.804082E-1,1.3850533E0,5.314042E-1,-6.1086303E-1,7.7084994E-1,-2.549874E-1,-8.9788806E-1,6.5017354E-1,-3.314852E-1,-6.0214087E-2,1.3410709E0,-1.5913586E-1,9.5447677E-4,1.0120426E0,-3.2189232E-1,7.930842E-1,1.886748E0,8.6445026E-2,7.210301E-1,2.7483097E-1,-1.5625142E0,-3.1797644E-2,-9.368605E-2,9.723898E-2,-1.9875038E-2,-8.158972E-2,5.081479E-2,1.0312762E-1,2.8690606E-1,2.0805955E-1,-7.8673325E-2,-7.6686345E-2,-1.9926649E-2,2.20037E-2,1.01316944E-1,-7.345875E-2,8.989405E-2,-9.6446685E-2,-2.8189886E-2,-7.190967E-4,1.2436547E-1,9.1646664E-2,-6.1621975E-2,-5.1529642E-2,5.788306E-2,1.5766774E-1,4.2203844E-2,1.6671222E-2,1.20699845E-1,2.9488975E-2,-9.542307E-2,1.2326326E-1,-4.9516123E-2,2.4967054E-1,1.166053E-1,-2.5601199E-2,3.7931424E-2,9.103263E-2,-2.9365389E-2,-3.0615369E-2,8.197988E-2,-2.4526666E-1,-9.8353796E-2],"categories":[],"categories_nodes":[],"categories_segments":[],"categories_sizes":[],"default_left":[0,0,0,0,0,0,0,0,0,0,0,0,0,0,0,0,0,0,0,0,0,0,0,0,0,0,0,0,0,0,0,0,0,0,0,0,0,0,0,0,0,0,0,0,0,0,0,0,0,0,0,0,0,0,0,0,0,0,0,0,0,0,0,0,0,0,0,0,0,0,0,0,0,0,0,0,0,0,0,0,0,0,0,0,0,0,0,0,0,0,0,0,0],"id":5,"left_children":[1,3,5,7,9,11,13,15,17,-1,19,21,23,-1,25,27,29,31,33,35,37,39,41,43,45,47,49,-1,51,53,55,57,59,61,63,65,67,69,71,73,75,-1,-1,77,79,81,83,85,87,89,91,-1,-1,-1,-1,-1,-1,-1,-1,-1,-1,-1,-1,-1,-1,-1,-1,-1,-1,-1,-1,-1,-1,-1,-1,-1,-1,-1,-1,-1,-1,-1,-1,-1,-1,-1,-1,-1,-1,-1,-1,-1,-1],"loss_changes":[1.956821E2,1.2952121E2,2.350565E1,1.450924E2,2.658197E1,2.618745E1,2.4568161E1,1.5259354E1,8.517216E1,0E0,9.395669E0,8.307947E0,1.1610981E1,0E0,2.3251707E1,1.0372009E0,1.6560463E1,1.433979E1,9.3688995E1,5.723133E0,5.862409E0,1.0095057E1,2.253065E0,6.6550417E0,7.871681E0,1.8264683E1,5.0802414E1,0E0,2.0298843E0,7.078338E0,9.827377E0,2.4369759E1,7.451901E1,8.800144E0,9.887028E0,1.7567547E1,8.7893677E-1,4.942764E0,4.774324E0,8.591306E0,6.989441E-1,0E0,0E0,9.927039E-1,3.3964345E0,8.722084E0,5.868286E0,1.9058252E1,1.1776243E1,1.2637863E1,1.0269375E1,0E0,0E0,0E0,0E0,0E0,0E0,0E0,0E0,0E0,0E0,0E0,0E0,0E0,0E0,0E0,0E0,0E0,0E0,0E0,0E0,0E0,0E0,0E0,0E0,0E0,0E0,0E0,0E0,0E0,0E0,0E0,0E0,0E0,0E0,0E0,0E0,0E0,0E0,0E0,0E0,0E0,0E0],"parents":[2147483647,0,0,1,1,2,2,3,3,4,4,5,5,6,6,7,7,8,8,10,10,11,11,12,12,14,14,15,15,16,16,17,17,18,18,19,19,20,20,21,21,22,22,23,23,24,24,25,25,26,26,28,28,29,29,30,30,31,31,32,32,33,33,34,34,35,35,36,36,37,37,38,38,39,39,40,40,43,43,44,44,45,45,46,46,47,47,48,48,49,49,50,50],"right_children":[2,4,6,8,10,12,14,16,18,-1,20,22,24,-1,26,28,30,32,34,36,38,40,42,44,46,48,50,-1,52,54,56,58,60,62,64,66,68,70,72,74,76,-1,-1,78,80,82,84,86,88,90,92,-1,-1,-1,-1,-1,-1,-1,-1,-1,-1,-1,-1,-1,-1,-1,-1,-1,-1,-1,-1,-1,-1,-1,-1,-1,-1,-1,-1,-1,-1,-1,-1,-1,-1,-1,-1,-1,-1,-1,-1,-1,-1],"split_conditions":[2.1812E2,2.48E1,6.95E2,8.18E0,2.2E1,4E0,7.65E2,6.29E0,6E0,-9.801643E-2,1.0064E2,5.68E2,6.0017306E-1,-1.7619899E-1,9.3583E2,2.2E1,4E0,1.373E1,2.2E1,5.238E1,1.2701E2,4.75E2,6.47E2,4.0691525E-1,2.71E2,1.05638E5,2.2E1,-9.867703E-2,1.923E3,7.4122906E-1,2.3E1,1.05638E5,2.148E3,1.903E1,1.598E1,4.83E1,9.211E1,1.1505E2,4.5251733E-1,3.5827E2,3E0,-1.5913586E-1,9.5447677E-4,1.3E1,3.46E2,2.07E2,4.4459E2,4E0,1.241364E6,1.2E1,7.297E3,-3.1797644E-2,-9.368605E-2,9.723898E-2,-1.9875038E-2,-8.158972E-2,5.081479E-2,1.0312762E-1,2.8690606E-1,2.0805955E-1,-7.8673325E-2,-7.6686345E-2,-1.9926649E-2,2.20037E-2,1.01316944E-1,-7.345875E-2,8.989405E-2,-9.6446685E-2,-2.8189886E-2,-7.190967E-4,1.2436547E-1,9.1646664E-2,-6.1621975E-2,-5.1529642E-2,5.788306E-2,1.5766774E-1,4.2203844E-2,1.6671222E-2,1.20699845E-1,2.9488975E-2,-9.542307E-2,1.2326326E-1,-4.9516123E-2,2.4967054E-1,1.166053E-1,-2.5601199E-2,3.7931424E-2,9.103263E-2,-2.9365389E-2,-3.0615369E-2,8.197988E-2,-2.4526666E-1,-9.8353796E-2],"split_indices":[0,0,2,0,1,1,2,0,1,0,0,2,3,0,0,1,1,0,1,0,0,2,2,3,2,2,1,0,2,3,1,2,2,0,0,0,0,0,3,0,1,0,0,1,2,2,0,1,2,1,2,0,0,0,0,0,0,0,0,0,0,0,0,0,0,0,0,0,0,0,0,0,0,0,0,0,0,0,0,0,0,0,0,0,0,0,0,0,0,0,0,0,0],"split_type":[0,0,0,0,0,0,0,0,0,0,0,0,0,0,0,0,0,0,0,0,0,0,0,0,0,0,0,0,0,0,0,0,0,0,0,0,0,0,0,0,0,0,0,0,0,0,0,0,0,0,0,0,0,0,0,0,0,0,0,0,0,0,0,0,0,0,0,0,0,0,0,0,0,0,0,0,0,0,0,0,0,0,0,0,0,0,0,0,0,0,0,0,0],"sum_hessian":[1.6524291E3,1.2553582E3,3.970709E2,5.6460645E2,6.9075165E2,8.2138954E1,3.1493195E2,2.6568246E2,2.9892398E2,6.1164746E2,7.910419E1,3.6609894E1,4.5529064E1,6.23072E0,3.0870123E2,1.8914673E2,7.653575E1,8.574435E1,2.1317964E2,5.6610897E1,2.2493288E1,3.2817276E1,3.7926195E0,1.3231578E1,3.2297485E1,2.4697217E2,6.172906E1,1.6481006E2,2.4336672E1,1.9084461E1,5.745129E1,5.105362E1,3.4690727E1,1.3843404E2,7.47456E1,2.9550175E1,2.7060724E1,1.1646498E1,1.0846791E1,2.7516245E1,5.3010297E0,2.6502552E0,1.1423643E0,6.2445984E0,6.9869795E0,1.3325451E1,1.8972034E1,1.8805351E2,5.8918644E1,3.8122482E1,2.3606579E1,1.0631939E1,1.3704733E1,9.052713E0,1.0031748E1,5.1853775E1,5.597515E0,4.259435E1,8.459272E0,1.5681735E1,1.9008993E1,9.976041E1,3.867363E1,2.3419376E1,5.1326225E1,2.1131018E1,8.419155E0,2.3910639E1,3.1500852E0,5.9945583E0,5.6519394E0,1.6028876E0,9.243904E0,1.6184464E1,1.1331781E1,3.6497753E0,1.6512542E0,1.5179366E0,4.7266617E0,3.807146E0,3.1798334E0,9.967661E0,3.35779E0,8.940758E0,1.0031276E1,8.674589E1,1.01307625E2,4.9741817E1,9.1768265E0,1.8663612E1,1.945887E1,8.02786E0,1.5578719E1],"tree_param":{"num_deleted":"0","num_feature":"4","num_nodes":"93","size_leaf_vector":"1"}},{"base_weights":[-4.0170595E-1,-5.916698E-1,1.7789185E-1,-2.4690308E-1,-8.844725E-1,2.913271E-1,-2.6605102E-1,-8.4874964E-1,1.4304584E-1,-9.707778E-1,-2.7571622E-1,7.4283563E-4,5.517767E-1,3.900765E-1,-1.4290507E0,-9.4680995E-1,-4.5155415E-1,8.0458504E-1,-1.5577841E-1,-9.772361E-2,-5.9188366E-1,-5.163445E-1,3.36108E-1,-3.6980695E-1,7.9592764E-1,1.1474056E0,1.21073306E-1,-1.6277127E-1,8.517533E-1,-3.188518E-1,-1.0669101E0,-9.844647E-2,-6.689084E-1,3.2557768E-1,-7.341284E-1,2.2726836E0,7.3065245E-1,-6.299022E-1,6.496848E-1,-8.2368284E-2,-6.9975716E-1,-2.0341827E-1,-7.843622E-1,9.050293E-1,-3.4095289E-3,1.9310467E0,-5.007871E-1,2.626874E0,3.602472E-1,9.5192635E-1,1.6647369E0,6.0622114E-1,-3.3944663E-1,2.5089994E-1,-5.2853256E-1,2.5652313E0,5.444271E-1,-7.3082715E-1,-1.9530092E0,-2.9777978E-2,-9.3027644E-2,7.161575E-2,-2.9702622E-2,-8.374825E-2,1.5541046E-2,8.915431E-3,3.568741E-1,9.837202E-2,2.5261406E-2,-7.8390025E-2,-1.8352037E-2,-7.440164E-2,7.035672E-2,-5.5520654E-2,4.7666654E-2,-8.227122E-4,-7.782289E-2,4.3962352E-2,-7.520445E-2,3.2058287E-2,-8.707433E-2,1.2752198E-1,-1.0140491E-2,-3.644407E-2,6.601019E-2,3.5418104E-2,2.2654143E-1,6.952E-3,-7.0257E-2,1.11774564E-1,5.986782E-1,-4.570269E-2,4.809968E-2,1.5114331E-1,6.33335E-2,1.3660516E-1,2.7524972E-1,-6.4606294E-2,1.8647574E-1,6.433421E-2,-1.5165858E-1,4.6774425E-2,-7.197535E-2,-9.7759955E-2,5.0435524E-2,3.9501052E-2,3.181781E-1,-3.0599168E-2,8.4430784E-2,-1.4081123E-1,-4.0223934E-3,-8.4493294E-2,-2.4653879E-1],"categories":[],"categories_nodes":[],"categories_segments":[],"categories_sizes":[],"default_left":[0,0,0,0,0,0,0,0,0,0,0,0,0,0,0,0,0,0,0,0,0,0,0,0,0,0,0,0,0,0,0,0,0,0,0,0,0,0,0,0,0,0,0,0,0,0,0,0,0,0,0,0,0,0,0,0,0,0,0,0,0,0,0,0,0,0,0,0,0,0,0,0,0,0,0,0,0,0,0,0,0,0,0,0,0,0,0,0,0,0,0,0,0,0,0,0,0,0,0,0,0,0,0,0,0,0,0,0,0,0,0,0,0],"id":6,"left_children":[1,3,5,7,9,11,13,15,17,19,21,23,25,27,29,31,33,35,37,-1,39,41,43,45,47,49,51,53,55,-1,57,-1,59,61,63,65,67,69,71,73,75,77,79,81,83,85,87,89,91,93,95,97,99,101,103,105,107,109,111,-1,-1,-1,-1,-1,-1,-1,-1,-1,-1,-1,-1,-1,-1,-1,-1,-1,-1,-1,-1,-1,-1,-1,-1,-1,-1,-1,-1,-1,-1,-1,-1,-1,-1,-1,-1,-1,-1,-1,-1,-1,-1,-1,-1,-1,-1,-1,-1,-1,-1,-1,-1,-1,-1],"loss_changes":[1.753339E2,1.2080655E2,1.990004E1,1.2966272E2,3.3772614E1,2.3763493E1,6.2085648E1,8.030823E0,6.6508514E1,8.092041E-1,1.2223225E1,4.431964E1,4.2339287E1,1.349644E1,1.5265385E1,1.1544952E0,1.0101178E1,9.698235E0,8.906646E1,0E0,6.040964E-1,4.8003063E0,4.582736E0,3.1887814E1,3.7192696E1,5.430397E0,2.1925081E1,3.863099E0,1.3705919E1,0E0,6.255726E0,0E0,2.0310183E0,3.293331E0,3.1863365E0,1.2540199E1,1.1982994E1,9.936607E0,7.020172E0,1.1203039E0,5.2553797E-1,1.0432115E1,3.2861233E0,3.4320893E0,4.036084E0,2.2199192E0,1.1311533E1,3.9100414E1,4.1455145E0,8.433319E0,1.986763E0,7.638127E1,5.9413437E1,2.9146414E0,6.7118816E0,4.218712E0,6.783721E0,9.439627E0,1.6052818E0,0E0,0E0,0E0,0E0,0E0,0E0,0E0,0E0,0E0,0E0,0E0,0E0,0E0,0E0,0E0,0E0,0E0,0E0,0E0,0E0,0E0,0E0,0E0,0E0,0E0,0E0,0E0,0E0,0E0,0E0,0E0,0E0,0E0,0E0,0E0,0E0,0E0,0E0,0E0,0E0,0E0,0E0,0E0,0E0,0E0,0E0,0E0,0E0,0E0,0E0,0E0,0E0,0E0,0E0],"parents":[2147483647,0,0,1,1,2,2,3,3,4,4,5,5,6,6,7,7,8,8,9,9,10,10,11,11,12,12,13,13,14,14,15,15,16,16,17,17,18,18,20,20,21,21,22,22,23,23,24,24,25,25,26,26,27,27,28,28,30,30,32,32,33,33,34,34,35,35,36,36,37,37,38,38,39,39,40,40,41,41,42,42,43,43,44,44,45,45,46,46,47,47,48,48,49,49,50,50,51,51,52,52,53,53,54,54,55,55,56,56,57,57,58,58],"right_children":[2,4,6,8,10,12,14,16,18,20,22,24,26,28,30,32,34,36,38,-1,40,42,44,46,48,50,52,54,56,-1,58,-1,60,62,64,66,68,70,72,74,76,78,80,82,84,86,88,90,92,94,96,98,100,102,104,106,108,110,112,-1,-1,-1,-1,-1,-1,-1,-1,-1,-1,-1,-1,-1,-1,-1,-1,-1,-1,-1,-1,-1,-1,-1,-1,-1,-1,-1,-1,-1,-1,-1,-1,-1,-1,-1,-1,-1,-1,-1,-1,-1,-1,-1,-1,-1,-1,-1,-1,-1,-1,-1,-1,-1,-1],"split_conditions":[2.4711E2,2.48E1,9.3583E2,7.45E0,2.2E1,4E0,2.2E1,6.29E0,6E0,2.1812E2,1.1156E2,3.5827E2,3.5827E2,9E0,1.892E3,2.2E1,4E0,9.9E1,2.2E1,-9.772361E-2,3E0,2.036E3,1.2701E2,2.7393E2,6.7179E2,2.3E1,2.2E1,2.501E3,3.13E2,-3.188518E-1,1.72817E5,-9.844647E-2,1.923E3,8.387632E-1,2.3E1,9.98E0,1.373E1,1.903E1,2.241881E-1,8.2981527E-1,5.19E2,5.238E1,2.679E1,7.646E3,2.0962E2,1.423E3,5.616899E-1,9.2985E4,4.2451274E-1,1.1E1,1.1352216E0,6.7179E2,6.7179E2,1.0463164E0,1.51785E5,1.4E2,1.423E3,9.521E3,7.1049947E-1,-2.9777978E-2,-9.3027644E-2,7.161575E-2,-2.9702622E-2,-8.374825E-2,1.5541046E-2,8.915431E-3,3.568741E-1,9.837202E-2,2.5261406E-2,-7.8390025E-2,-1.8352037E-2,-7.440164E-2,7.035672E-2,-5.5520654E-2,4.7666654E-2,-8.227122E-4,-7.782289E-2,4.3962352E-2,-7.520445E-2,3.2058287E-2,-8.707433E-2,1.2752198E-1,-1.0140491E-2,-3.644407E-2,6.601019E-2,3.5418104E-2,2.2654143E-1,6.952E-3,-7.0257E-2,1.11774564E-1,5.986782E-1,-4.570269E-2,4.809968E-2,1.5114331E-1,6.33335E-2,1.3660516E-1,2.7524972E-1,-6.4606294E-2,1.8647574E-1,6.433421E-2,-1.5165858E-1,4.6774425E-2,-7.197535E-2,-9.7759955E-2,5.0435524E-2,3.9501052E-2,3.181781E-1,-3.0599168E-2,8.4430784E-2,-1.4081123E-1,-4.0223934E-3,-8.4493294E-2,-2.4653879E-1],"split_indices":[0,0,0,0,1,1,1,0,1,0,0,0,0,1,2,1,1,2,1,0,1,2,0,0,0,1,1,2,2,0,2,0,2,3,1,0,0,0,3,3,2,0,0,2,0,2,3,2,3,1,3,0,0,3,2,2,2,2,3,0,0,0,0,0,0,0,0,0,0,0,0,0,0,0,0,0,0,0,0,0,0,0,0,0,0,0,0,0,0,0,0,0,0,0,0,0,0,0,0,0,0,0,0,0,0,0,0,0,0,0,0,0,0],"split_type":[0,0,0,0,0,0,0,0,0,0,0,0,0,0,0,0,0,0,0,0,0,0,0,0,0,0,0,0,0,0,0,0,0,0,0,0,0,0,0,0,0,0,0,0,0,0,0,0,0,0,0,0,0,0,0,0,0,0,0,0,0,0,0,0,0,0,0,0,0,0,0,0,0,0,0,0,0,0,0,0,0,0,0,0,0,0,0,0,0,0,0,0,0,0,0,0,0,0,0,0,0,0,0,0,0,0,0,0,0,0,0,0,0],"sum_hessian":[1.5905024E3,1.1978763E3,3.9262622E2,5.509691E2,6.4690717E2,3.129944E2,7.963181E1,2.1616454E2,3.348046E2,5.660603E2,8.084687E1,1.4841277E2,1.6458162E2,5.133489E1,2.8296923E1,1.7225435E2,4.3910183E1,1.03650314E2,2.3115428E2,5.550207E2,1.103959E1,5.8137615E1,2.2709259E1,1.01602E2,4.6810776E1,6.836885E1,9.621277E1,2.3655447E1,2.7679441E1,3.49786E0,2.4799063E1,1.4946043E2,2.2793911E1,1.1668221E1,3.2241962E1,3.5436263E0,1.0010668E2,1.4564217E2,8.551211E1,2.2370355E0,8.802554E0,2.7633215E1,3.05044E1,7.8647885E0,1.484447E1,4.73214E0,9.686986E1,8.031031E0,3.8779747E1,5.168078E1,1.6688074E1,4.6699486E1,4.9513283E1,1.1248066E1,1.2407382E1,3.0921912E0,2.4587252E1,1.9302649E1,5.496413E0,1.0303212E1,1.24907E1,7.077815E0,4.590406E0,2.89382E1,3.3037622E0,1.7180072E0,1.825619E0,6.4763725E1,3.5342957E1,1.07722626E2,3.7919544E1,2.706207E0,8.28059E1,1.2156621E0,1.0213734E0,1.0096731E0,7.792881E0,1.2813391E1,1.4819824E1,2.0152335E0,2.8489166E1,5.554605E0,2.3101835E0,9.90544E0,4.939029E0,1.1881448E0,3.5439951E0,2.5487886E1,7.1381966E1,6.461479E0,1.5695511E0,4.6335325E0,3.4146214E1,1.739237E1,3.428841E1,1.4862781E1,1.8252944E0,2.365182E1,2.3047667E1,2.7231382E1,2.2281902E1,9.617604E0,1.6304617E0,8.684962E0,3.722419E0,1.0471078E0,2.0450835E0,6.404535E0,1.8182716E1,9.220754E0,1.0081895E1,2.575546E0,2.9208672E0],"tree_param":{"num_deleted":"0","num_feature":"4","num_nodes":"113","size_leaf_vector":"1"}},{"base_weights":[-3.747455E-1,-5.6793886E-1,1.5227215E-1,-2.3304676E-1,-8.757041E-1,2.500749E-1,-2.2974844E-1,-8.7908334E-1,9.49398E-2,-9.6875006E-1,-2.5730696E-1,4.103948E-3,4.607548E-1,3.434775E-1,-1.1842241E0,-9.4082487E-1,-4.7292235E-1,6.733169E-1,-1.6353443E-1,-9.759144E-2,-5.7010335E-1,-5.351784E-1,2.4769449E-1,-3.227532E-1,6.9650155E-1,9.503214E-1,1.0005208E-1,1.26709E0,1.2198216E-1,-2.306201E0,-9.10894E-1,-9.820195E-2,-6.476203E-1,2.994132E-1,-8.3790845E-1,1.6343912E0,5.913948E-1,-5.813155E-1,5.1813686E-1,-8.256969E-2,-2.8158E-1,-2.1846385E-1,-8.8101935E-1,6.224488E-2,8.9284444E-1,1.5411146E0,-4.424838E-1,1.9913317E0,3.24228E-1,6.9206196E-1,1.2049296E0,5.1425487E-1,-2.7994278E-1,3.204502E-1,1.934358E0,-2.914752E-1,4.600176E-1,-9.638115E-1,-2.7857777E-1,-6.295917E-1,-1.6149418E0,-2.7838934E-2,-9.232764E-2,-2.3746196E-2,1.1566726E-1,-9.421646E-2,5.115152E-3,3.9605848E-3,2.4448662E-1,7.815038E-2,1.7990632E-2,-3.2432517E-4,-6.9141135E-2,2.5879798E-2,7.613391E-2,1.48436995E-2,-7.249614E-2,4.0438954E-2,-8.6160846E-2,-1.2331102E-2,-9.178242E-2,-8.228554E-3,1.1613474E-1,1.6152047E-1,-1.5101361E-2,8.4041245E-2,2.19393E-1,-5.9926715E-2,1.9697988E-2,9.27024E-2,3.792687E-1,-6.230106E-3,5.492994E-2,9.724161E-2,-2.9012436E-2,9.883838E-2,2.2518359E-1,-6.225583E-2,1.4423254E-1,5.508054E-2,-1.2135255E-1,-1.2621514E-2,8.875434E-2,2.234608E-1,3.4273118E-2,9.624672E-2,-4.3927845E-2,-8.790205E-2,7.199569E-2,-1.4658348E-1,2.0412996E-3,-1.1610061E-1,-3.6459954E-3,-3.2532036E-2,-1.7980461E-1],"categories":[],"categories_nodes":[],"categories_segments":[],"categories_sizes":[],"default_left":[0,0,0,0,0,0,0,0,0,0,0,0,0,0,0,0,0,0,0,0,0,0,0,0,0,0,0,0,0,0,0,0,0,0,0,0,0,0,0,0,0,0,0,0,0,0,0,0,0,0,0,0,0,0,0,0,0,0,0,0,0,0,0,0,0,0,0,0,0,0,0,0,0,0,0,0,0,0,0,0,0,0,0,0,0,0,0,0,0,0,0,0,0,0,0,0,0,0,0,0,0,0,0,0,0,0,0,0,0,0,0,0,0,0,0],"id":7,"left_children":[1,3,5,7,9,11,13,15,17,19,21,23,25,27,29,31,33,35,37,-1,39,41,43,45,47,49,51,53,55,57,59,-1,61,63,65,67,69,71,73,-1,75,77,79,81,83,85,87,89,91,93,95,97,99,101,103,105,107,109,-1,111,113,-1,-1,-1,-1,-1,-1,-1,-1,-1,-1,-1,-1,-1,-1,-1,-1,-1,-1,-1,-1,-1,-1,-1,-1,-1,-1,-1,-1,-1,-1,-1,-1,-1,-1,-1,-1,-1,-1,-1,-1,-1,-1,-1,-1,-1,-1,-1,-1,-1,-1,-1,-1,-1,-1],"loss_changes":[1.5758751E2,1.1648685E2,1.5590651E1,1.15257835E2,3.3677002E1,1.717574E1,4.7056175E1,4.1474304E0,5.4141327E1,9.0631104E-1,1.1144573E1,3.506371E1,3.1432823E1,1.0901751E1,7.7792664E0,1.2718811E0,7.629539E0,7.837902E0,7.166856E1,0E0,6.1160755E-1,5.386859E0,3.3587084E0,2.4171368E1,2.3302841E1,4.138672E0,1.6499928E1,5.9161243E0,6.3811913E0,9.5768166E-1,4.4412575E0,0E0,2.0223675E0,4.479848E0,1.7201891E0,1.052314E1,8.042812E0,9.916187E0,5.842289E0,0E0,1.4220896E0,1.1531989E1,5.566578E-1,3.7874284E0,4.9918466E0,1.1644478E0,1.011178E1,1.7381313E1,3.4951715E0,1.1266651E1,6.1013756E0,5.3726967E1,4.3203785E1,1.4992547E0,2.039631E0,4.2626038E0,9.327526E0,1.5212998E0,0E0,6.6808825E0,1.1219921E0,0E0,0E0,0E0,0E0,0E0,0E0,0E0,0E0,0E0,0E0,0E0,0E0,0E0,0E0,0E0,0E0,0E0,0E0,0E0,0E0,0E0,0E0,0E0,0E0,0E0,0E0,0E0,0E0,0E0,0E0,0E0,0E0,0E0,0E0,0E0,0E0,0E0,0E0,0E0,0E0,0E0,0E0,0E0,0E0,0E0,0E0,0E0,0E0,0E0,0E0,0E0,0E0,0E0,0E0],"parents":[2147483647,0,0,1,1,2,2,3,3,4,4,5,5,6,6,7,7,8,8,9,9,10,10,11,11,12,12,13,13,14,14,15,15,16,16,17,17,18,18,20,20,21,21,22,22,23,23,24,24,25,25,26,26,27,27,28,28,29,29,30,30,32,32,33,33,34,34,35,35,36,36,37,37,38,38,40,40,41,41,42,42,43,43,44,44,45,45,46,46,47,47,48,48,49,49,50,50,51,51,52,52,53,53,54,54,55,55,56,56,57,57,59,59,60,60],"right_children":[2,4,6,8,10,12,14,16,18,20,22,24,26,28,30,32,34,36,38,-1,40,42,44,46,48,50,52,54,56,58,60,-1,62,64,66,68,70,72,74,-1,76,78,80,82,84,86,88,90,92,94,96,98,100,102,104,106,108,110,-1,112,114,-1,-1,-1,-1,-1,-1,-1,-1,-1,-1,-1,-1,-1,-1,-1,-1,-1,-1,-1,-1,-1,-1,-1,-1,-1,-1,-1,-1,-1,-1,-1,-1,-1,-1,-1,-1,-1,-1,-1,-1,-1,-1,-1,-1,-1,-1,-1,-1,-1,-1,-1,-1,-1,-1],"split_conditions":[2.4711E2,2.542E1,9.3583E2,7E0,2.2E1,4E0,2.2E1,6.29E0,5E0,2.1812E2,1.0064E2,3.5827E2,3.5827E2,4.98E2,1.892E3,2.2E1,6E0,1.49E2,2.2E1,-9.759144E-2,7.512838E-1,2.501E3,1.0463164E0,2.7393E2,6.7179E2,2.2E1,2.2E1,9E0,1.2E1,6.32E2,1.72817E5,-9.820195E-2,1.923E3,6.508E3,2.3E1,9.98E0,1.373E1,1.1E1,1.842E1,-8.256969E-2,9.6564984E-1,5.238E1,2.679E1,2.48858E5,4.542E3,4.2817E4,1.05638E5,9.2985E4,1.523E3,1.7E1,1.0319624E0,6.7179E2,6.7179E2,3.02E2,1.0033958E0,2.8437403E-1,9.32E2,7.8063816E-1,-2.7857777E-1,9.521E3,4.7982234E-1,-2.7838934E-2,-9.232764E-2,-2.3746196E-2,1.1566726E-1,-9.421646E-2,5.115152E-3,3.9605848E-3,2.4448662E-1,7.815038E-2,1.7990632E-2,-3.2432517E-4,-6.9141135E-2,2.5879798E-2,7.613391E-2,1.48436995E-2,-7.249614E-2,4.0438954E-2,-8.6160846E-2,-1.2331102E-2,-9.178242E-2,-8.228554E-3,1.1613474E-1,1.6152047E-1,-1.5101361E-2,8.4041245E-2,2.19393E-1,-5.9926715E-2,1.9697988E-2,9.27024E-2,3.792687E-1,-6.230106E-3,5.492994E-2,9.724161E-2,-2.9012436E-2,9.883838E-2,2.2518359E-1,-6.225583E-2,1.4423254E-1,5.508054E-2,-1.2135255E-1,-1.2621514E-2,8.875434E-2,2.234608E-1,3.4273118E-2,9.624672E-2,-4.3927845E-2,-8.790205E-2,7.199569E-2,-1.4658348E-1,2.0412996E-3,-1.1610061E-1,-3.6459954E-3,-3.2532036E-2,-1.7980461E-1],"split_indices":[0,0,0,0,1,1,1,0,1,0,0,0,0,2,2,1,1,2,1,0,3,2,3,0,0,1,1,1,1,2,2,0,2,2,1,0,0,1,0,0,3,0,0,2,2,2,2,2,2,1,3,0,0,2,3,3,2,3,0,2,3,0,0,0,0,0,0,0,0,0,0,0,0,0,0,0,0,0,0,0,0,0,0,0,0,0,0,0,0,0,0,0,0,0,0,0,0,0,0,0,0,0,0,0,0,0,0,0,0,0,0,0,0,0,0],"split_type":[0,0,0,0,0,0,0,0,0,0,0,0,0,0,0,0,0,0,0,0,0,0,0,0,0,0,0,0,0,0,0,0,0,0,0,0,0,0,0,0,0,0,0,0,0,0,0,0,0,0,0,0,0,0,0,0,0,0,0,0,0,0,0,0,0,0,0,0,0,0,0,0,0,0,0,0,0,0,0,0,0,0,0,0,0,0,0,0,0,0,0,0,0,0,0,0,0,0,0,0,0,0,0,0,0,0,0,0,0,0,0,0,0,0,0],"sum_hessian":[1.5459136E3,1.1311724E3,4.1474118E2,5.42554E2,5.8861835E2,3.304792E2,8.426201E1,1.8213051E2,3.6042352E2,5.1114352E2,7.747479E1,1.5293983E2,1.7753934E2,5.3045067E1,3.121694E1,1.5695502E2,2.51755E1,1.1082655E2,2.4959697E2,5.0069717E2,1.0446338E1,4.993749E1,2.7537304E1,1.0425738E2,4.8682465E1,7.46226E1,1.0291673E2,9.347278E0,4.369779E1,4.6582284E0,2.655871E1,1.3555983E2,2.1395178E1,8.136908E0,1.7038593E1,7.2164006E0,1.0361015E2,1.5484386E2,9.475311E1,4.5520344E0,5.8943033E0,2.6918097E1,2.3019392E1,2.2240664E1,5.296641E0,5.5764394E0,9.868094E1,9.899887E0,3.8782578E1,3.8891514E1,3.5731087E1,4.9072887E1,5.384385E1,4.4766235E0,4.8706536E0,1.9718035E1,2.3979753E1,2.0183501E0,2.6398785E0,2.0330076E1,6.2286353E0,1.0004475E1,1.1390704E1,5.447995E0,2.6889126E0,1.5196802E1,1.841792E0,2.7850592E0,4.431341E0,7.025356E1,3.3356583E1,2.4937225E1,1.2990663E2,4.685421E1,4.7898903E1,3.329945E0,2.564358E0,1.38633585E1,1.3054739E1,1.267873E0,2.175152E1,2.0473553E1,1.7671096E0,2.806898E0,2.489743E0,3.7927935E0,1.7836456E0,7.930086E1,1.9380077E1,7.175161E0,2.724726E0,1.453828E1,2.4244299E1,3.0263174E1,8.62834E0,3.1217953E1,4.513134E0,2.2203968E1,2.6868917E1,2.8708033E1,2.5135818E1,2.9391031E0,1.5375204E0,3.7577937E0,1.1128602E0,1.4979359E0,1.8220098E1,3.5111187E0,2.0468636E1,1.0125496E0,1.0058006E0,1.0217934E1,1.0112142E1,1.119634E0,5.109001E0],"tree_param":{"num_deleted":"0","num_feature":"4","num_nodes":"115","size_leaf_vector":"1"}},{"base_weights":[-3.49185E-1,-5.4869014E-1,1.2068112E-1,-2.1712597E-1,-8.8244563E-1,4.6547487E-1,2.8030025E-2,-8.676257E-1,8.3674215E-2,-9.727259E-2,-2.976283E-1,1.4225122E-1,8.265235E-1,-1.6679524E-1,6.246723E-2,-9.343838E-1,-4.485049E-1,7.0337296E-1,-1.07890755E-1,1.9740455E-2,-5.9945565E-1,8.348652E-2,1.385743E-1,1.467512E-1,1.0826015E0,1.5376729E-1,-2.8105703E-1,-9.794133E-2,-6.2592477E-1,2.716356E-1,-8.241894E-1,2.4139716E-1,1.0174625E0,-4.1579053E-1,4.4418427E-1,-7.6085436E-1,2.4105E-1,-8.7309456E-1,-1.5140504E-1,2.2819284E-1,-1.1682388E0,8.4596145E-1,-4.9812728E-1,8.8243073E-1,1.8846549E0,4.3419942E-2,5.395233E-1,1.8545665E-1,-8.94273E-1,-7.047591E-2,4.1718986E-2,-2.218985E-2,9.827959E-2,-9.361503E-2,4.767184E-3,-2.2528177E-2,1.1746355E-1,1.6066651E-1,1.9133791E-2,1.2163631E-2,-6.6906884E-2,-7.491402E-2,4.8586562E-2,-1.0866544E-2,-8.6072676E-2,1.6427359E-1,-2.1281838E-2,2.6749074E-2,-9.582913E-2,-3.531195E-2,1.0519785E-1,1.0083768E-2,1.0620319E-1,-1.444984E-1,-1.4096173E-2,1.4088871E-2,1.2254383E-1,-1.50137115E-2,-9.1306224E-2,1.0183876E-1,-7.2351E-2,2.7859864E-1,1.0581314E-1,3.7658136E-2,-1.3625386E-2,7.087295E-2,-3.0133126E-2,3.5093185E-2,-6.386109E-2,-1.20710924E-1,-6.306997E-2],"categories":[],"categories_nodes":[],"categories_segments":[],"categories_sizes":[],"default_left":[0,0,0,0,0,0,0,0,0,0,0,0,0,0,0,0,0,0,0,0,0,0,0,0,0,0,0,0,0,0,0,0,0,0,0,0,0,0,0,0,0,0,0,0,0,0,0,0,0,0,0,0,0,0,0,0,0,0,0,0,0,0,0,0,0,0,0,0,0,0,0,0,0,0,0,0,0,0,0,0,0,0,0,0,0,0,0,0,0,0,0],"id":8,"left_children":[1,3,5,7,9,11,13,15,17,-1,19,21,23,-1,25,27,29,31,33,35,37,39,-1,41,43,45,47,-1,49,51,53,55,57,59,61,63,65,67,69,71,73,75,77,79,81,83,85,87,89,-1,-1,-1,-1,-1,-1,-1,-1,-1,-1,-1,-1,-1,-1,-1,-1,-1,-1,-1,-1,-1,-1,-1,-1,-1,-1,-1,-1,-1,-1,-1,-1,-1,-1,-1,-1,-1,-1,-1,-1,-1,-1],"loss_changes":[1.4115736E2,1.167446E2,1.4343878E1,1.0405536E2,2.7496979E1,1.0983246E1,2.0855207E1,4.284935E0,4.332241E1,0E0,6.891564E0,3.6401777E0,7.6265526E0,0E0,1.0995107E1,1.3884659E0,6.993592E0,1.22556E1,4.763418E1,6.398551E0,4.384965E0,9.349166E0,0E0,6.461217E0,3.5273857E0,1.174708E1,2.1241705E1,0E0,2.0313587E0,3.4929616E0,1.6739893E0,1.6021687E1,2.450497E1,2.4544044E1,5.3590755E0,4.3976784E-1,1.8664953E1,2.458683E0,4.056147E0,4.7548523E0,1.3199992E0,1.6460295E0,9.599515E-1,6.796385E0,1.2064953E0,1.2987062E1,8.951899E0,6.042652E0,1.8775139E0,0E0,0E0,0E0,0E0,0E0,0E0,0E0,0E0,0E0,0E0,0E0,0E0,0E0,0E0,0E0,0E0,0E0,0E0,0E0,0E0,0E0,0E0,0E0,0E0,0E0,0E0,0E0,0E0,0E0,0E0,0E0,0E0,0E0,0E0,0E0,0E0,0E0,0E0,0E0,0E0,0E0,0E0],"parents":[2147483647,0,0,1,1,2,2,3,3,4,4,5,5,6,6,7,7,8,8,10,10,11,11,12,12,14,14,15,15,16,16,17,17,18,18,19,19,20,20,21,21,23,23,24,24,25,25,26,26,28,28,29,29,30,30,31,31,32,32,33,33,34,34,35,35,36,36,37,37,38,38,39,39,40,40,41,41,42,42,43,43,44,44,45,45,46,46,47,47,48,48],"right_children":[2,4,6,8,10,12,14,16,18,-1,20,22,24,-1,26,28,30,32,34,36,38,40,-1,42,44,46,48,-1,50,52,54,56,58,60,62,64,66,68,70,72,74,76,78,80,82,84,86,88,90,-1,-1,-1,-1,-1,-1,-1,-1,-1,-1,-1,-1,-1,-1,-1,-1,-1,-1,-1,-1,-1,-1,-1,-1,-1,-1,-1,-1,-1,-1,-1,-1,-1,-1,-1,-1,-1,-1,-1,-1,-1,-1],"split_conditions":[2.1812E2,2.542E1,6.95E2,7E0,2.2E1,1.3E1,7.65E2,6.29E0,3E0,-9.727259E-2,2.036E3,6.63E2,6.0424507E-1,-1.6679524E-1,9.3583E2,2.2E1,6E0,9.98E0,2.2E1,4.502E1,9.211E1,5.68E2,1.385743E-1,4.0691525E-1,5.68E2,1.34056E5,2.2E1,-9.794133E-2,6E0,6.508E3,2.3E1,9.772E3,4.474E3,1.1E1,2.241881E-1,2.747E1,5.238E1,2.679E1,5.45147E5,4.98E2,5E0,2.4576421E-1,4.5E2,5.28E2,5.95E2,2.526E3,1.241364E6,1.0796387E0,7.297E3,-7.047591E-2,4.1718986E-2,-2.218985E-2,9.827959E-2,-9.361503E-2,4.767184E-3,-2.2528177E-2,1.1746355E-1,1.6066651E-1,1.9133791E-2,1.2163631E-2,-6.6906884E-2,-7.491402E-2,4.8586562E-2,-1.0866544E-2,-8.6072676E-2,1.6427359E-1,-2.1281838E-2,2.6749074E-2,-9.582913E-2,-3.531195E-2,1.0519785E-1,1.0083768E-2,1.0620319E-1,-1.444984E-1,-1.4096173E-2,1.4088871E-2,1.2254383E-1,-1.50137115E-2,-9.1306224E-2,1.0183876E-1,-7.2351E-2,2.7859864E-1,1.0581314E-1,3.7658136E-2,-1.3625386E-2,7.087295E-2,-3.0133126E-2,3.5093185E-2,-6.386109E-2,-1.20710924E-1,-6.306997E-2],"split_indices":[0,0,2,0,1,1,2,0,1,0,2,2,3,0,0,1,1,0,1,0,0,2,0,3,2,2,1,0,0,2,1,2,2,1,3,0,0,0,2,2,1,3,2,2,2,2,2,3,2,0,0,0,0,0,0,0,0,0,0,0,0,0,0,0,0,0,0,0,0,0,0,0,0,0,0,0,0,0,0,0,0,0,0,0,0,0,0,0,0,0,0],"split_type":[0,0,0,0,0,0,0,0,0,0,0,0,0,0,0,0,0,0,0,0,0,0,0,0,0,0,0,0,0,0,0,0,0,0,0,0,0,0,0,0,0,0,0,0,0,0,0,0,0,0,0,0,0,0,0,0,0,0,0,0,0,0,0,0,0,0,0,0,0,0,0,0,0,0,0,0,0,0,0,0,0,0,0,0,0,0,0,0,0,0,0],"sum_hessian":[1.5041216E3,1.0557026E3,4.4841904E2,5.3041785E2,5.252847E2,9.412315E1,3.5429587E2,1.6712181E2,3.6329605E2,4.5446423E2,7.082052E1,5.0398556E1,4.3724598E1,6.1068687E0,3.48189E2,1.4309937E2,2.4022442E1,8.5154785E1,2.7814127E2,3.4977055E1,3.584346E1,4.914329E1,1.255266E0,1.2394866E1,3.1329733E1,2.7551614E2,7.2672844E1,1.22972404E2,2.0126963E1,8.3306265E0,1.5691815E1,3.5179657E1,4.997513E1,1.7871585E2,9.942541E1,7.1875234E0,2.778953E1,2.1663946E1,1.4179516E1,4.478374E1,4.359549E0,5.7973104E0,6.5975556E0,2.6753098E1,4.5766354E0,2.1509871E2,6.0417454E1,4.1669605E1,3.100324E1,1.9014307E1,1.1126543E0,5.3239E0,3.0067265E0,1.384071E1,1.8511055E0,2.3957817E1,1.1221841E1,2.8618923E1,2.1356205E1,5.7412663E1,1.21303185E2,2.7827613E0,9.664265E1,1.2317781E0,5.955745E0,6.156609E0,2.1632921E1,1.3570142E0,2.0306932E1,1.2749047E1,1.4304692E0,3.9822453E1,4.961291E0,3.114025E0,1.2455238E0,2.5082397E0,3.2890706E0,4.3289022E0,2.2686532E0,2.5002298E1,1.750799E0,1.0552013E0,3.5214343E0,7.49767E1,1.40122E2,5.0427086E1,9.990367E0,3.5179585E1,6.490018E0,1.2539852E1,1.846339E1],"tree_param":{"num_deleted":"0","num_feature":"4","num_nodes":"91","size_leaf_vector":"1"}},{"base_weights":[-3.2762104E-1,-5.2002233E-1,1.184765E-1,-1.9964941E-1,-8.4871256E-1,4.228179E-1,3.512707E-2,-8.863148E-1,6.758928E-2,-9.586923E-1,-2.213443E-1,3.534233E-1,1.9714913E0,-1.6563483E-1,6.719645E-2,-9.4586504E-1,-5.490306E-1,5.9673434E-1,-1.10368274E-1,-9.671208E-1,-5.553094E-1,-4.907182E-1,2.4172784E-1,8.687964E-2,6.5301275E-1,2.3898427E-1,7.155817E-2,1.5695854E-1,-2.4670643E-1,-9.840959E-2,-6.755688E-1,-6.436382E-1,3.352306E-2,1.8217384E0,5.1918924E-1,-3.982951E-1,3.761961E-1,-9.933837E-1,-8.848055E-1,-5.0809577E-2,-6.6984385E-1,-2.0243317E-1,-8.601643E-1,8.254343E-1,6.6921346E-2,2.2041035E-1,-1.1046854E0,-2.0128336E-2,9.037865E-1,4.5210544E-2,5.0475544E-1,1.6399218E-1,-7.614993E-1,-2.4569465E-2,-9.154477E-2,-3.6116217E-3,-8.775912E-2,2.3885338E-1,4.2263974E-2,-1.6030652E-2,5.9837587E-2,9.177022E-3,-6.5141164E-2,9.08785E-3,5.5738777E-2,-4.727697E-2,-9.965711E-2,-6.4311706E-2,-9.354147E-2,-5.3147603E-2,4.7547065E-2,-5.358967E-4,-7.531592E-2,-6.912254E-2,7.137384E-2,-9.489553E-2,-1.5328772E-2,-1.8085897E-2,1.5448275E-1,-7.134679E-2,1.8827328E-2,-6.5939547E-3,5.626864E-2,-1.3680123E-1,-1.0759409E-2,3.0829405E-2,-9.863413E-2,1.2558119E-1,6.082982E-2,3.3974823E-2,-1.3422528E-2,-3.9478343E-2,6.224087E-2,-2.3958744E-2,4.7817923E-2,-5.846327E-2,-1.2452843E-1],"categories":[],"categories_nodes":[],"categories_segments":[],"categories_sizes":[],"default_left":[0,0,0,0,0,0,0,0,0,0,0,0,0,0,0,0,0,0,0,0,0,0,0,0,0,0,0,0,0,0,0,0,0,0,0,0,0,0,0,0,0,0,0,0,0,0,0,0,0,0,0,0,0,0,0,0,0,0,0,0,0,0,0,0,0,0,0,0,0,0,0,0,0,0,0,0,0,0,0,0,0,0,0,0,0,0,0,0,0,0,0,0,0,0,0,0,0],"id":9,"left_children":[1,3,5,7,9,11,13,15,17,19,21,23,25,-1,27,29,31,33,35,37,39,41,43,45,47,-1,-1,49,51,-1,53,55,-1,57,59,61,63,65,67,69,71,73,75,77,79,81,83,85,87,89,91,93,95,-1,-1,-1,-1,-1,-1,-1,-1,-1,-1,-1,-1,-1,-1,-1,-1,-1,-1,-1,-1,-1,-1,-1,-1,-1,-1,-1,-1,-1,-1,-1,-1,-1,-1,-1,-1,-1,-1,-1,-1,-1,-1,-1,-1],"loss_changes":[1.24947845E2,1.06900665E2,1.1127944E1,9.4786415E1,3.4394806E1,9.442722E0,1.8875656E1,2.386818E0,3.514454E1,9.128723E-1,9.612761E0,7.2514515E0,3.0109215E-1,0E0,9.631325E0,5.916672E-1,2.2315812E0,7.974907E0,3.932218E1,2.11792E-2,6.0600567E-1,4.9860697E0,2.8692875E0,8.132878E0,7.265938E0,0E0,0E0,1.0290283E1,1.621283E1,0E0,1.657671E0,3.1107702E0,0E0,3.107893E0,4.923332E0,2.1909945E1,5.3498297E0,3.9123535E-2,7.42218E-1,1.0448623E0,4.9118567E-1,1.3265997E1,1.1680622E0,4.9973E0,2.3261652E0,4.488885E0,1.2084069E0,4.3125267E0,2.4922485E0,1.071747E1,7.0643406E0,5.5857854E0,2.1764374E0,0E0,0E0,0E0,0E0,0E0,0E0,0E0,0E0,0E0,0E0,0E0,0E0,0E0,0E0,0E0,0E0,0E0,0E0,0E0,0E0,0E0,0E0,0E0,0E0,0E0,0E0,0E0,0E0,0E0,0E0,0E0,0E0,0E0,0E0,0E0,0E0,0E0,0E0,0E0,0E0,0E0,0E0,0E0,0E0],"parents":[2147483647,0,0,1,1,2,2,3,3,4,4,5,5,6,6,7,7,8,8,9,9,10,10,11,11,12,12,14,14,15,15,16,16,17,17,18,18,19,19,20,20,21,21,22,22,23,23,24,24,27,27,28,28,30,30,31,31,33,33,34,34,35,35,36,36,37,37,38,38,39,39,40,40,41,41,42,42,43,43,44,44,45,45,46,46,47,47,48,48,49,49,50,50,51,51,52,52],"right_children":[2,4,6,8,10,12,14,16,18,20,22,24,26,-1,28,30,32,34,36,38,40,42,44,46,48,-1,-1,50,52,-1,54,56,-1,58,60,62,64,66,68,70,72,74,76,78,80,82,84,86,88,90,92,94,96,-1,-1,-1,-1,-1,-1,-1,-1,-1,-1,-1,-1,-1,-1,-1,-1,-1,-1,-1,-1,-1,-1,-1,-1,-1,-1,-1,-1,-1,-1,-1,-1,-1,-1,-1,-1,-1,-1,-1,-1,-1,-1,-1,-1],"split_conditions":[2.4711E2,2.48E1,6.95E2,6.72E0,2.2E1,6.63E2,7.65E2,5.86E0,3E0,2.1812E2,1.0064E2,1.3E1,3.5827E2,-1.6563483E-1,9.3583E2,2.2E1,2.3E1,1.23E2,2.2E1,9.607E1,3E0,5.238E1,5.79E2,5.68E2,6.0424507E-1,2.3898427E-1,7.155817E-2,1.05638E5,2.2E1,-9.840959E-2,1.493E3,6E0,3.352306E-2,7.9645264E-1,3.6801457E-1,1.1E1,1.718E1,2.542E1,4E0,8.387632E-1,5.09E2,4.83E1,9.211E1,2.71E2,8.78E2,2.71E2,5E0,4.98E2,2E1,2.644E3,4.0066186E-1,1.2E1,1.72817E5,-2.4569465E-2,-9.154477E-2,-3.6116217E-3,-8.775912E-2,2.3885338E-1,4.2263974E-2,-1.6030652E-2,5.9837587E-2,9.177022E-3,-6.5141164E-2,9.08785E-3,5.5738777E-2,-4.727697E-2,-9.965711E-2,-6.4311706E-2,-9.354147E-2,-5.3147603E-2,4.7547065E-2,-5.358967E-4,-7.531592E-2,-6.912254E-2,7.137384E-2,-9.489553E-2,-1.5328772E-2,-1.8085897E-2,1.5448275E-1,-7.134679E-2,1.8827328E-2,-6.5939547E-3,5.626864E-2,-1.3680123E-1,-1.0759409E-2,3.0829405E-2,-9.863413E-2,1.2558119E-1,6.082982E-2,3.3974823E-2,-1.3422528E-2,-3.9478343E-2,6.224087E-2,-2.3958744E-2,4.7817923E-2,-5.846327E-2,-1.2452843E-1],"split_indices":[0,0,2,0,1,2,2,0,1,0,0,1,0,0,0,1,1,2,1,0,1,0,2,2,3,0,0,2,1,0,2,1,0,3,3,1,0,0,1,3,2,0,0,2,2,2,1,2,1,2,3,1,2,0,0,0,0,0,0,0,0,0,0,0,0,0,0,0,0,0,0,0,0,0,0,0,0,0,0,0,0,0,0,0,0,0,0,0,0,0,0,0,0,0,0,0,0],"split_type":[0,0,0,0,0,0,0,0,0,0,0,0,0,0,0,0,0,0,0,0,0,0,0,0,0,0,0,0,0,0,0,0,0,0,0,0,0,0,0,0,0,0,0,0,0,0,0,0,0,0,0,0,0,0,0,0,0,0,0,0,0,0,0,0,0,0,0,0,0,0,0,0,0,0,0,0,0,0,0,0,0,0,0,0,0,0,0,0,0,0,0,0,0,0,0,0,0],"sum_hessian":[1.454046E3,1.015777E3,4.3826898E2,5.1521075E2,5.0056625E2,9.334759E1,3.449214E2,1.4368863E2,3.7152213E2,4.2545453E2,7.511171E1,9.05197E1,2.8278918E0,5.475423E0,3.3944598E2,1.2059268E2,2.3095945E1,9.290928E1,2.7861285E2,4.1537784E2,1.0076687E1,4.7449905E1,2.7661804E1,4.8584362E1,4.1935333E1,1.4440063E0,1.3838856E0,2.6435294E2,7.509305E1,1.0333596E2,1.7256725E1,2.1109543E1,1.9864036E0,4.192141E0,8.871713E1,1.7514899E2,1.0346386E2,3.0651532E2,1.0886252E2,2.1315007E0,7.9451866E0,2.752198E1,1.9927927E1,5.517157E0,2.2144646E1,4.4421383E1,4.162982E0,1.1631942E1,3.030339E1,2.0092517E2,6.342775E1,4.2148594E1,3.2944454E1,6.9056745E0,1.0351051E1,6.1899767E0,1.4919565E1,2.4801862E0,1.7119546E0,9.152834E0,7.95643E1,5.9870213E1,1.1527878E2,4.076846E1,6.2695404E1,2.7738554E0,3.037415E2,2.1222113E1,8.76404E1,1.1088679E0,1.0226328E0,1.0037848E0,6.9414015E0,1.8107088E1,9.414892E0,1.7399862E1,2.528064E0,2.6120267E0,2.9051304E0,2.3234823E0,1.9821165E1,2.4626268E1,1.9795115E1,2.998967E0,1.1640152E0,9.189346E0,2.4425962E0,1.2345641E1,1.795775E1,7.572757E1,1.251976E2,7.063907E0,5.6363846E1,1.8553581E1,2.3595015E1,2.5741938E1,7.202517E0],"tree_param":{"num_deleted":"0","num_feature":"4","num_nodes":"97","size_leaf_vector":"1"}},{"base_weights":[-3.0685422E-1,-5.005182E-1,9.590753E-2,-1.8781412E-1,-8.5929656E-1,3.6899796E-1,2.0958632E-2,-8.7555355E-1,5.4093767E-2,-9.65605E-1,-2.6207072E-1,3.0639744E-1,1.7965935E0,-1.6127573E-1,4.935717E-2,-9.4002223E-1,-5.250382E-1,4.184563E-1,-1.5976076E-1,-9.9559195E-2,-8.738605E-1,3.5835292E-2,-5.647679E-1,3.4821343E-1,-1.1908569E-1,2.1722117E-1,6.632719E-2,1.2427373E-1,-2.1644077E-1,-9.818385E-2,-6.549792E-1,-6.21548E-1,3.0571657E-1,6.2717605E-1,2.1392094E-1,-5.601042E-1,3.1979597E-1,-6.202931E-1,-9.286202E-1,-7.284118E-1,2.2464803E-1,-8.53973E-1,-1.4751534E-1,2.4833496E-1,1.0172385E0,3.494171E-2,4.333355E-1,1.447671E-1,-6.5690774E-1,-2.2930287E-2,-9.0753235E-2,-3.3112895E-3,-8.6663894E-2,9.952271E-2,-5.159343E-2,1.2967564E-1,3.6310744E-2,4.220912E-2,-3.741193E-2,-7.259547E-2,-7.5722486E-3,-7.437341E-2,3.5380896E-2,-9.274832E-2,-7.6353676E-3,-9.400759E-2,-8.160575E-3,-6.9093443E-3,-8.4001765E-2,1.2768075E-1,-1.5614656E-2,2.983883E-2,-9.509411E-2,-3.4085516E-2,9.08321E-2,8.112481E-3,4.6268087E-2,5.2267123E-2,1.3396484E-1,2.1847654E-2,-1.7774716E-2,5.821351E-2,-3.113851E-2,2.8762287E-2,-5.985738E-2,-1.0142688E-1,-4.621641E-2],"categories":[],"categories_nodes":[],"categories_segments":[],"categories_sizes":[],"default_left":[0,0,0,0,0,0,0,0,0,0,0,0,0,0,0,0,0,0,0,0,0,0,0,0,0,0,0,0,0,0,0,0,0,0,0,0,0,0,0,0,0,0,0,0,0,0,0,0,0,0,0,0,0,0,0,0,0,0,0,0,0,0,0,0,0,0,0,0,0,0,0,0,0,0,0,0,0,0,0,0,0,0,0,0,0,0,0],"id":10,"left_children":[1,3,5,7,9,11,13,15,17,19,21,23,25,-1,27,29,31,33,35,-1,37,39,41,43,-1,-1,-1,45,47,-1,49,51,53,55,57,59,61,63,65,67,69,71,73,75,77,79,81,83,85,-1,-1,-1,-1,-1,-1,-1,-1,-1,-1,-1,-1,-1,-1,-1,-1,-1,-1,-1,-1,-1,-1,-1,-1,-1,-1,-1,-1,-1,-1,-1,-1,-1,-1,-1,-1,-1,-1],"loss_changes":[1.1002751E2,1.0668004E2,9.380291E0,8.4913864E1,2.7886078E1,8.271336E0,1.6826355E1,2.5072784E0,2.9545172E1,1.640625E-1,6.1831436E0,6.4108706E0,2.3696518E-1,0E0,7.1110735E0,6.78772E-1,2.025672E0,5.850872E0,4.60865E1,0E0,8.2315826E-1,5.2696385E0,3.9718962E0,6.024806E0,0E0,0E0,0E0,7.6649466E0,1.2598781E1,0E0,1.6401148E0,2.977151E0,2.2432508E0,1.1706478E1,9.011433E0,1.04436035E1,4.2216988E0,3.4228125E0,7.078781E-1,4.751377E-1,1.1874051E1,2.5016308E0,3.3942263E0,2.9395285E0,1.1941156E0,8.505126E0,7.0835447E0,4.8444834E0,2.0081272E0,0E0,0E0,0E0,0E0,0E0,0E0,0E0,0E0,0E0,0E0,0E0,0E0,0E0,0E0,0E0,0E0,0E0,0E0,0E0,0E0,0E0,0E0,0E0,0E0,0E0,0E0,0E0,0E0,0E0,0E0,0E0,0E0,0E0,0E0,0E0,0E0,0E0,0E0],"parents":[2147483647,0,0,1,1,2,2,3,3,4,4,5,5,6,6,7,7,8,8,9,9,10,10,11,11,12,12,14,14,15,15,16,16,17,17,18,18,20,20,21,21,22,22,23,23,27,27,28,28,30,30,31,31,32,32,33,33,34,34,35,35,36,36,37,37,38,38,39,39,40,40,41,41,42,42,43,43,44,44,45,45,46,46,47,47,48,48],"right_children":[2,4,6,8,10,12,14,16,18,20,22,24,26,-1,28,30,32,34,36,-1,38,40,42,44,-1,-1,-1,46,48,-1,50,52,54,56,58,60,62,64,66,68,70,72,74,76,78,80,82,84,86,-1,-1,-1,-1,-1,-1,-1,-1,-1,-1,-1,-1,-1,-1,-1,-1,-1,-1,-1,-1,-1,-1,-1,-1,-1,-1,-1,-1,-1,-1,-1,-1,-1,-1,-1,-1,-1,-1],"split_conditions":[2.1812E2,2.542E1,6.95E2,6.72E0,2.2E1,6.63E2,7.65E2,5.86E0,6E0,9.607E1,2.036E3,6.39E2,3.5827E2,-1.6127573E-1,9.3583E2,2.2E1,2.3E1,2E0,2.2E1,-9.9559195E-2,4E0,4.502E1,9.211E1,2.3E1,-1.1908569E-1,2.1722117E-1,6.632719E-2,1.34056E5,2.2E1,-9.818385E-2,1.493E3,6E0,7.643546E-1,8.04E2,1.483E1,1.903E1,2.241881E-1,2.691E3,1.38248E6,2.747E1,5.184E1,2.679E1,5.45147E5,5.1744E2,7.140534E-1,5.211E3,1.241364E6,1.0796387E0,6.2477696E-1,-2.2930287E-2,-9.0753235E-2,-3.3112895E-3,-8.6663894E-2,9.952271E-2,-5.159343E-2,1.2967564E-1,3.6310744E-2,4.220912E-2,-3.741193E-2,-7.259547E-2,-7.5722486E-3,-7.437341E-2,3.5380896E-2,-9.274832E-2,-7.6353676E-3,-9.400759E-2,-8.160575E-3,-6.9093443E-3,-8.4001765E-2,1.2768075E-1,-1.5614656E-2,2.983883E-2,-9.509411E-2,-3.4085516E-2,9.08321E-2,8.112481E-3,4.6268087E-2,5.2267123E-2,1.3396484E-1,2.1847654E-2,-1.7774716E-2,5.821351E-2,-3.113851E-2,2.8762287E-2,-5.985738E-2,-1.0142688E-1,-4.621641E-2],"split_indices":[0,0,2,0,1,2,2,0,1,0,2,2,0,0,0,1,1,1,1,0,1,0,0,1,0,0,0,2,1,0,2,1,3,2,0,0,3,2,2,0,0,0,2,0,3,2,2,3,3,0,0,0,0,0,0,0,0,0,0,0,0,0,0,0,0,0,0,0,0,0,0,0,0,0,0,0,0,0,0,0,0,0,0,0,0,0,0],"split_type":[0,0,0,0,0,0,0,0,0,0,0,0,0,0,0,0,0,0,0,0,0,0,0,0,0,0,0,0,0,0,0,0,0,0,0,0,0,0,0,0,0,0,0,0,0,0,0,0,0,0,0,0,0,0,0,0,0,0,0,0,0,0,0,0,0,0,0,0,0,0,0,0,0,0,0,0,0,0,0,0,0,0,0,0,0,0,0],"sum_hessian":[1.4089856E3,9.5131335E2,4.5767224E2,5.0910825E2,4.4220514E2,9.771305E1,3.599592E2,1.3179584E2,3.7731238E2,3.7486154E2,6.73436E1,9.4771904E1,2.9411519E0,5.196968E0,3.5476224E2,1.0990051E2,2.1895325E1,1.3919576E2,2.3811664E2,2.7509448E2,9.9767075E1,3.438473E1,3.295887E1,9.2943565E1,1.828337E0,1.5205255E0,1.4206265E0,2.771722E2,7.759001E1,9.370876E1,1.6191753E1,1.9842075E1,2.05325E0,6.787045E1,7.13253E1,1.2968503E2,1.084316E2,1.990832E1,7.985876E1,6.2458577E0,2.8138874E1,1.8848196E1,1.4110673E1,8.206352E1,1.0880039E1,2.1588524E2,6.1286972E1,4.29994E1,3.459061E1,6.7398033E0,9.45195E0,6.1681547E0,1.367392E1,1.0015333E0,1.0517168E0,1.8090063E1,4.9780388E1,5.2885635E1,1.8439669E1,9.62356E1,3.3449432E1,2.7136621E0,1.0571794E2,1.2272368E1,7.6359515E0,7.868469E1,1.174059E0,1.1385989E0,5.107259E0,6.8523607E0,2.1286512E1,1.3017006E0,1.7546495E1,1.2499072E1,1.6116012E0,4.687503E1,3.5188496E1,5.328072E0,5.5519676E0,1.1587041E2,1.0001484E2,5.12627E1,1.0024273E1,3.6582096E1,6.4173045E0,1.0716766E1,2.3873844E1],"tree_param":{"num_deleted":"0","num_feature":"4","num_nodes":"87","size_leaf_vector":"1"}},{"base_weights":[-2.8702968E-1,-4.7209254E-1,9.510349E-2,-1.7196175E-1,-8.2104695E-1,7.219213E-1,6.170807E-2,-8.6403954E-1,5.307712E-2,-9.4905865E-1,-1.8995903E-1,1.684333E-1,5.0818676E-1,2.3455675E-1,-7.844496E-2,-9.33723E-1,-5.008256E-1,3.5931304E-1,-1.3873151E-1,-9.5904356E-1,-5.365953E-1,-4.5337528E-1,2.2640583E-1,7.4073195E-2,1.0179231E0,-1.208105E-2,3.869777E-1,-4.740476E-1,1.24257304E-1,-9.7941875E-2,-6.340011E-1,-6.260619E-1,1.4611475E-1,1.4786252E-1,5.259465E-1,-5.2637285E-1,2.852091E-1,-9.9070853E-1,-8.6224055E-1,-8.049898E-2,-2.5362903E-1,-1.7701334E-1,-8.4103703E-1,5.9455633E-2,7.7124184E-1,5.9497154E-1,-5.1499254E-1,2.8108343E-1,1.4168259E0,-8.9214444E-2,9.873483E-1,8.191018E-1,1.5658735E-1,-1.1611208E-1,-1.3001534E0,3.358476E-1,-2.826437E-1,-2.1373685E-2,-8.991395E-2,-3.0352704E-3,-9.212767E-2,9.0631165E-2,-6.366377E-2,-1.6620362E-2,7.669341E-2,1.381986E-1,1.8823452E-2,-7.051721E-2,-3.2937436E-4,2.716825E-3,4.2114273E-2,-4.5124073E-2,-9.945714E-2,-5.9808332E-2,-9.2129886E-2,1.5717497E-2,-7.0595436E-2,-6.5449856E-2,5.5074204E-2,-9.406143E-2,-1.3166509E-2,4.756678E-2,-2.7551794E-2,1.3314305E-1,-1.4291498E-2,7.7211554E-3,1.1315431E-1,4.617342E-2,-8.090204E-2,9.977917E-2,-6.53274E-2,1.9388464E-1,7.048883E-2,-5.9280187E-2,5.8753374E-3,1.3292915E-1,-1.3777907E-2,1.7022468E-1,6.413715E-2,4.276195E-2,-1.8032342E-2,-6.007883E-2,2.8950388E-2,-9.4494864E-2,-1.9676909E-1,1.875226E-3,6.856462E-2,3.8265165E-2,-6.422933E-2],"categories":[],"categories_nodes":[],"categories_segments":[],"categories_sizes":[],"default_left":[0,0,0,0,0,0,0,0,0,0,0,0,0,0,0,0,0,0,0,0,0,0,0,0,0,0,0,0,0,0,0,0,0,0,0,0,0,0,0,0,0,0,0,0,0,0,0,0,0,0,0,0,0,0,0,0,0,0,0,0,0,0,0,0,0,0,0,0,0,0,0,0,0,0,0,0,0,0,0,0,0,0,0,0,0,0,0,0,0,0,0,0,0,0,0,0,0,0,0,0,0,0,0,0,0,0,0,0,0],"id":11,"left_children":[1,3,5,7,9,11,13,15,17,19,21,-1,23,25,27,29,31,33,35,37,39,41,43,45,47,49,51,53,55,-1,57,59,61,63,65,67,69,71,73,-1,75,77,79,81,83,85,87,89,91,93,95,97,99,101,103,105,107,-1,-1,-1,-1,-1,-1,-1,-1,-1,-1,-1,-1,-1,-1,-1,-1,-1,-1,-1,-1,-1,-1,-1,-1,-1,-1,-1,-1,-1,-1,-1,-1,-1,-1,-1,-1,-1,-1,-1,-1,-1,-1,-1,-1,-1,-1,-1,-1,-1,-1,-1,-1],"loss_changes":[9.6823395E1,9.643823E1,9.3195915E0,7.7454865E1,3.4245483E1,3.7793713E0,1.0333705E1,2.6205978E0,2.2136158E1,9.433899E-1,8.121322E0,0E0,4.321806E0,7.181692E0,1.8975044E1,7.653427E-1,1.8575487E0,5.0343914E0,3.8263287E1,2.013855E-1,6.037357E-1,4.684387E0,2.5917974E0,3.9302964E0,2.2650719E0,5.7842116E0,1.16219845E1,2.354194E1,1.3591898E1,0E0,1.6158304E0,3.2170072E0,3.1631136E0,1.2830747E1,2.3084976E1,1.1360954E1,3.896863E0,7.797241E-2,8.935394E-1,0E0,1.3444737E0,9.952749E0,1.1836109E0,3.3767338E0,3.6305356E0,1.7828128E0,2.1192021E0,3.618434E0,7.2612E-1,5.214569E0,2.2518086E0,5.3133583E0,7.2194805E0,1.1380201E1,3.860798E0,1.1477544E1,1.3208107E1,0E0,0E0,0E0,0E0,0E0,0E0,0E0,0E0,0E0,0E0,0E0,0E0,0E0,0E0,0E0,0E0,0E0,0E0,0E0,0E0,0E0,0E0,0E0,0E0,0E0,0E0,0E0,0E0,0E0,0E0,0E0,0E0,0E0,0E0,0E0,0E0,0E0,0E0,0E0,0E0,0E0,0E0,0E0,0E0,0E0,0E0,0E0,0E0,0E0,0E0,0E0,0E0],"parents":[2147483647,0,0,1,1,2,2,3,3,4,4,5,5,6,6,7,7,8,8,9,9,10,10,12,12,13,13,14,14,15,15,16,16,17,17,18,18,19,19,20,20,21,21,22,22,23,23,24,24,25,25,26,26,27,27,28,28,30,30,31,31,32,32,33,33,34,34,35,35,36,36,37,37,38,38,40,40,41,41,42,42,43,43,44,44,45,45,46,46,47,47,48,48,49,49,50,50,51,51,52,52,53,53,54,54,55,55,56,56],"right_children":[2,4,6,8,10,12,14,16,18,20,22,-1,24,26,28,30,32,34,36,38,40,42,44,46,48,50,52,54,56,-1,58,60,62,64,66,68,70,72,74,-1,76,78,80,82,84,86,88,90,92,94,96,98,100,102,104,106,108,-1,-1,-1,-1,-1,-1,-1,-1,-1,-1,-1,-1,-1,-1,-1,-1,-1,-1,-1,-1,-1,-1,-1,-1,-1,-1,-1,-1,-1,-1,-1,-1,-1,-1,-1,-1,-1,-1,-1,-1,-1,-1,-1,-1,-1,-1,-1,-1,-1,-1,-1,-1],"split_conditions":[2.4711E2,2.48E1,2.7393E2,6.72E0,2.2E1,2E0,2.644E3,5.86E0,6E0,2.1812E2,1.0064E2,1.684333E-1,2.1E1,4E0,9.772E3,2.2E1,2.2E1,9.98E0,2.2E1,9.607E1,7.512838E-1,5.238E1,1.0463164E0,9E0,5.76E3,2.307E3,3.5827E2,5.791E3,2.2E1,-9.7941875E-2,1.493E3,6E0,1.923E3,9.772E3,1.206E1,1.903E1,1.598E1,2.542E1,4E0,-8.049898E-2,9.6564984E-1,4.83E1,9.211E1,6.999964E-1,4.542E3,9.046516E-1,6.32E2,7.57597E-1,4.5303E4,3.0621E2,3E0,3.812597E-1,2.1E1,4.154E3,7.646E3,4.4459E2,6.7179E2,-2.1373685E-2,-8.991395E-2,-3.0352704E-3,-9.212767E-2,9.0631165E-2,-6.366377E-2,-1.6620362E-2,7.669341E-2,1.381986E-1,1.8823452E-2,-7.051721E-2,-3.2937436E-4,2.716825E-3,4.2114273E-2,-4.5124073E-2,-9.945714E-2,-5.9808332E-2,-9.2129886E-2,1.5717497E-2,-7.0595436E-2,-6.5449856E-2,5.5074204E-2,-9.406143E-2,-1.3166509E-2,4.756678E-2,-2.7551794E-2,1.3314305E-1,-1.4291498E-2,7.7211554E-3,1.1315431E-1,4.617342E-2,-8.090204E-2,9.977917E-2,-6.53274E-2,1.9388464E-1,7.048883E-2,-5.9280187E-2,5.8753374E-3,1.3292915E-1,-1.3777907E-2,1.7022468E-1,6.413715E-2,4.276195E-2,-1.8032342E-2,-6.007883E-2,2.8950388E-2,-9.4494864E-2,-1.9676909E-1,1.875226E-3,6.856462E-2,3.8265165E-2,-6.422933E-2],"split_indices":[0,0,0,0,1,1,2,0,1,0,0,0,1,1,2,1,1,0,1,0,3,0,3,1,2,2,0,2,1,0,2,1,2,2,0,0,0,0,1,0,3,0,0,3,2,3,2,3,2,0,1,3,1,2,2,0,0,0,0,0,0,0,0,0,0,0,0,0,0,0,0,0,0,0,0,0,0,0,0,0,0,0,0,0,0,0,0,0,0,0,0,0,0,0,0,0,0,0,0,0,0,0,0,0,0,0,0,0,0],"split_type":[0,0,0,0,0,0,0,0,0,0,0,0,0,0,0,0,0,0,0,0,0,0,0,0,0,0,0,0,0,0,0,0,0,0,0,0,0,0,0,0,0,0,0,0,0,0,0,0,0,0,0,0,0,0,0,0,0,0,0,0,0,0,0,0,0,0,0,0,0,0,0,0,0,0,0,0,0,0,0,0,0,0,0,0,0,0,0,0,0,0,0,0,0,0,0,0,0,0,0,0,0,0,0,0,0,0,0,0,0],"sum_hessian":[1.3675E3,9.2115796E2,4.4634204E2,4.9602588E2,4.2513208E2,2.1534336E1,4.248077E2,1.2101634E2,3.7500955E2,3.5302054E2,7.211154E1,2.6629632E0,1.8871372E1,1.8991489E2,2.3489284E2,1.00218475E2,2.0797867E1,1.4408864E2,2.309209E2,3.4338275E2,9.637799E0,4.411376E1,2.799778E1,1.081023E1,8.061143E0,7.2889885E1,1.17025E2,7.9126816E1,1.5576602E2,8.499269E1,1.5225782E1,1.745178E1,3.3460865E0,6.4336205E1,7.975243E1,1.2049838E2,1.10422516E2,2.5178716E2,9.15956E1,3.9994657E0,5.6383333E0,2.6604311E1,1.7509449E1,2.227985E1,5.7179294E0,5.7317443E0,5.078486E0,3.4300022E0,4.6311407E0,6.851297E1,4.37692E0,3.980701E1,7.721799E1,5.6002556E1,2.3124264E1,1.0259223E2,5.3173782E1,6.588557E0,8.637225E0,6.1482143E0,1.1303567E1,1.6174207E0,1.7286658E0,4.3167885E1,2.116832E1,2.168716E1,5.8065277E1,8.954271E1,3.0955673E1,3.8513252E1,7.190926E1,2.627686E0,2.4915947E2,1.8769585E1,7.282601E1,3.2967381E0,2.3415954E0,1.612515E1,1.0479159E1,1.5068277E1,2.4411721E0,9.747878E0,1.2531972E1,3.2623358E0,2.4555938E0,3.4991589E0,2.2325852E0,1.043089E0,4.0353966E0,1.9026583E0,1.5273439E0,1.6776702E0,2.9534707E0,1.4876529E1,5.3636436E1,3.2175882E0,1.1593322E0,5.231901E0,3.457511E1,4.2643578E1,3.457441E1,2.5295467E1,3.0707087E1,1.6669693E1,6.45457E0,5.436423E1,4.8228004E1,1.8636053E1,3.4537727E1],"tree_param":{"num_deleted":"0","num_feature":"4","num_nodes":"109","size_leaf_vector":"1"}},{"base_weights":[-2.6705673E-1,-4.528072E-1,7.68014E-2,-1.6605462E-1,-8.383856E-1,3.3466035E-1,1.9625027E-2,-9.034321E-1,2.0743571E-2,-9.5675623E-1,-2.5173563E-1,1.1672217E-1,5.8786535E-1,9.234751E-2,-2.4048574E-1,-9.6707754E-2,-5.314623E-1,3.069363E-1,-1.6044685E-1,-9.9334866E-2,-8.497181E-1,4.021357E-2,-5.750125E-1,4.0672034E-1,-7.4079156E-1,1.3345464E0,3.319887E-1,-2.0721377E-1,1.7082633E-1,4.9383E-2,-5.8165413E-1,-1.5220223E-1,-8.856167E-2,1.2963699E-1,4.5047805E-1,-5.4392505E-1,2.4590383E-1,-5.7444626E-1,-9.1338265E-1,-8.263406E-2,2.0446992E-1,-9.4281286E-2,-1.3771203E-1,2.0483997E-1,9.0273446E-1,-1.00764036E-1,-3.3603013E-1,1.7551681E0,5.842736E-1,-1.24686554E-1,5.360008E-1,-4.6950063E-1,5.218388E-1,1.3115357E-1,7.489569E-1,-3.0398518E-1,3.0818164E-1,-1.6271643E-1,-4.113622E-1,-5.4572266E-2,5.5787634E-2,-1.6214307E-2,6.581908E-2,1.11352436E-1,1.6738016E-2,-7.199448E-2,-1.795183E-2,5.2891996E-2,1.2606016E-2,-9.157809E-2,-1.9810402E-3,-9.270186E-2,-3.1683445E-3,9.7940646E-2,-1.2850516E-2,-3.2432895E-2,8.01415E-2,2.8858036E-2,-8.899682E-2,1.4376393E-1,-8.292418E-2,1.1146327E-2,-1.1001185E-1,6.9943406E-2,2.392009E-1,1.4642802E-1,-1.9406004E-2,6.506817E-3,1.1444936E-1,-6.5443665E-2,1.0504753E-2,7.6458365E-2,-3.823288E-2,-1.06723845E-1,1.460986E-2,1.5311454E-1,8.935167E-3,8.556985E-2,-4.4567663E-2,-8.220546E-2,4.6571422E-2,4.1715465E-2,-5.1568773E-2],"categories":[],"categories_nodes":[],"categories_segments":[],"categories_sizes":[],"default_left":[0,0,0,0,0,0,0,0,0,0,0,0,0,0,0,0,0,0,0,0,0,0,0,0,0,0,0,0,0,0,0,0,0,0,0,0,0,0,0,0,0,0,0,0,0,0,0,0,0,0,0,0,0,0,0,0,0,0,0,0,0,0,0,0,0,0,0,0,0,0,0,0,0,0,0,0,0,0,0,0,0,0,0,0,0,0,0,0,0,0,0,0,0,0,0,0,0,0,0,0,0,0,0],"id":12,"left_children":[1,3,5,7,9,11,13,15,17,19,21,23,25,27,29,-1,31,33,35,-1,37,39,41,43,45,47,49,51,53,55,57,59,-1,61,63,65,67,69,71,-1,73,-1,75,77,79,-1,81,83,85,-1,87,89,91,93,95,97,99,-1,101,-1,-1,-1,-1,-1,-1,-1,-1,-1,-1,-1,-1,-1,-1,-1,-1,-1,-1,-1,-1,-1,-1,-1,-1,-1,-1,-1,-1,-1,-1,-1,-1,-1,-1,-1,-1,-1,-1,-1,-1,-1,-1,-1,-1],"loss_changes":[8.5278175E1,9.568353E1,6.907249E0,6.8651085E1,2.5410217E1,4.624528E0,7.3028445E0,1.8708572E0,2.0715519E1,3.5842896E-1,6.0045834E0,1.1977749E1,7.025923E0,7.1238923E0,8.372927E0,0E0,2.1402502E0,3.8823557E0,3.8263386E1,0E0,9.6726227E-1,5.042047E0,4.7178307E0,3.393281E0,9.813576E-1,2.018671E0,1.0475274E1,1.2300631E1,5.3943624E0,4.3497252E0,6.245126E0,2.9273417E0,0E0,1.1007097E1,1.579949E1,7.965622E0,3.986217E0,3.519394E0,7.815285E-1,0E0,7.759155E0,0E0,2.878271E0,2.7037935E0,1.0496553E1,0E0,2.2958722E0,2.1471615E0,3.6843479E0,0E0,7.852276E0,5.0511827E0,4.0573363E0,4.1911993E0,7.6877403E0,3.696984E0,5.254403E0,0E0,3.2174554E0,0E0,0E0,0E0,0E0,0E0,0E0,0E0,0E0,0E0,0E0,0E0,0E0,0E0,0E0,0E0,0E0,0E0,0E0,0E0,0E0,0E0,0E0,0E0,0E0,0E0,0E0,0E0,0E0,0E0,0E0,0E0,0E0,0E0,0E0,0E0,0E0,0E0,0E0,0E0,0E0,0E0,0E0,0E0,0E0],"parents":[2147483647,0,0,1,1,2,2,3,3,4,4,5,5,6,6,7,7,8,8,9,9,10,10,11,11,12,12,13,13,14,14,16,16,17,17,18,18,20,20,21,21,22,22,23,23,24,24,25,25,26,26,27,27,28,28,29,29,30,30,31,31,33,33,34,34,35,35,36,36,37,37,38,38,40,40,42,42,43,43,44,44,46,46,47,47,48,48,50,50,51,51,52,52,53,53,54,54,55,55,56,56,58,58],"right_children":[2,4,6,8,10,12,14,16,18,20,22,24,26,28,30,-1,32,34,36,-1,38,40,42,44,46,48,50,52,54,56,58,60,-1,62,64,66,68,70,72,-1,74,-1,76,78,80,-1,82,84,86,-1,88,90,92,94,96,98,100,-1,102,-1,-1,-1,-1,-1,-1,-1,-1,-1,-1,-1,-1,-1,-1,-1,-1,-1,-1,-1,-1,-1,-1,-1,-1,-1,-1,-1,-1,-1,-1,-1,-1,-1,-1,-1,-1,-1,-1,-1,-1,-1,-1,-1,-1],"split_conditions":[2.1812E2,2.679E1,5.28E2,6.29E0,2.2E1,2.71E2,9.3583E2,2.2E1,6E0,9.607E1,2.036E3,1.98E2,3.13E2,2E0,2.2E1,-9.6707754E-2,1.923E3,9.98E0,2.2E1,-9.9334866E-2,4E0,4.502E1,9.211E1,1.4E2,8.147198E-1,1.6E1,3.37E2,9.2985E4,1.1746889E0,1.2E1,1.892E3,4.48E0,-8.856167E-2,9.772E3,1.206E1,1.777E1,6.286332E-1,2.691E3,1.38248E6,-8.263406E-2,5.184E1,-9.4281286E-2,5.45147E5,1.37E2,9.931413E-1,-1.00764036E-1,1.1352216E0,5E0,2.77E2,-1.24686554E-1,8.5900897E-1,4.4459E2,6.7179E2,5.64E2,1.2239655E0,2.8437403E-1,9.32E2,-1.6271643E-1,3.279E3,-5.4572266E-2,5.5787634E-2,-1.6214307E-2,6.581908E-2,1.11352436E-1,1.6738016E-2,-7.199448E-2,-1.795183E-2,5.2891996E-2,1.2606016E-2,-9.157809E-2,-1.9810402E-3,-9.270186E-2,-3.1683445E-3,9.7940646E-2,-1.2850516E-2,-3.2432895E-2,8.01415E-2,2.8858036E-2,-8.899682E-2,1.4376393E-1,-8.292418E-2,1.1146327E-2,-1.1001185E-1,6.9943406E-2,2.392009E-1,1.4642802E-1,-1.9406004E-2,6.506817E-3,1.1444936E-1,-6.5443665E-2,1.0504753E-2,7.6458365E-2,-3.823288E-2,-1.06723845E-1,1.460986E-2,1.5311454E-1,8.935167E-3,8.556985E-2,-4.4567663E-2,-8.220546E-2,4.6571422E-2,4.1715465E-2,-5.1568773E-2],"split_indices":[0,0,2,0,1,2,0,1,1,0,2,2,2,1,1,0,2,0,1,0,1,0,0,2,3,1,2,2,3,1,2,0,0,2,0,0,3,2,2,0,0,0,2,2,3,0,3,1,2,0,3,0,0,2,3,3,2,0,2,0,0,0,0,0,0,0,0,0,0,0,0,0,0,0,0,0,0,0,0,0,0,0,0,0,0,0,0,0,0,0,0,0,0,0,0,0,0,0,0,0,0,0,0],"split_type":[0,0,0,0,0,0,0,0,0,0,0,0,0,0,0,0,0,0,0,0,0,0,0,0,0,0,0,0,0,0,0,0,0,0,0,0,0,0,0,0,0,0,0,0,0,0,0,0,0,0,0,0,0,0,0,0,0,0,0,0,0,0,0,0,0,0,0,0,0,0,0,0,0,0,0,0,0,0,0,0,0,0,0,0,0,0,0,0,0,0,0,0,0,0,0,0,0,0,0,0,0,0,0],"sum_hessian":[1.3336014E3,8.656596E2,4.6794186E2,4.9727185E2,3.6838773E2,8.4046875E1,3.83895E2,9.973521E1,3.9753665E2,3.0601166E2,6.237607E1,4.595422E1,3.809266E1,3.005198E2,8.337518E1,8.3797295E1,1.5937912E1,1.5384398E2,2.4369266E2,2.2187906E2,8.41326E1,3.3236244E1,2.9139826E1,3.4733555E1,1.1220664E1,8.646238E0,2.9446419E1,6.2045547E1,2.3847427E2,4.553894E1,3.7836246E1,8.386579E0,7.5513334E0,6.968002E1,8.416396E1,1.2520067E2,1.1849199E2,1.7685837E1,6.644676E1,4.6537943E0,2.858245E1,1.519977E1,1.3940056E1,2.56904E1,9.043156E0,5.8647313E0,5.355933E0,4.682013E0,3.9642253E0,2.7846014E0,2.6661818E1,4.5891464E1,1.6154085E1,2.2430852E2,1.41657505E1,1.9178154E1,2.6360785E1,4.101271E0,3.3734974E1,5.5450263E0,2.841552E0,4.534258E1,2.4337444E1,2.430519E1,5.9858772E1,8.376427E1,4.143641E1,3.4233845E1,8.425815E1,1.0545052E1,7.1407857E0,6.538416E1,1.0626022E0,8.006786E0,2.0575663E1,1.217531E1,1.7647461E0,2.4549084E1,1.1413156E0,7.039129E0,2.0040267E0,3.9163938E0,1.4395393E0,2.5511262E0,2.1308868E0,1.4469547E0,2.5172706E0,1.5653777E1,1.1008039E1,3.4611607E1,1.1279859E1,1.2856765E1,3.29732E0,1.8956025E0,2.2241292E2,5.876196E0,8.289555E0,1.539428E0,1.7638725E1,2.708685E0,2.36521E1,3.4374402E0,3.0297535E1],"tree_param":{"num_deleted":"0","num_feature":"4","num_nodes":"103","size_leaf_vector":"1"}},{"base_weights":[-2.484301E-1,-4.2508453E-1,7.663012E-2,-1.3586676E-1,-7.763489E-1,6.1903423E-1,4.6865534E-2,-8.941375E-1,5.2204043E-2,-9.270487E-1,-1.7408463E-1,1.4232872E0,4.3318838E-1,1.933458E-1,-7.2981246E-2,-9.633204E-2,-5.089536E-1,3.5494566E-1,-7.480986E-2,-5.4422337E-1,-9.4077075E-1,-4.0119612E-1,2.1291858E-1,1.6813664E-1,3.8600735E-2,5.2145086E-2,8.582528E-1,2.2248898E-1,-8.682353E-1,-4.2963862E-1,1.04342036E-1,-1.401334E-1,-8.75969E-2,7.978944E-2,5.5421674E-1,-3.127993E-1,2.5019428E-1,1.01370566E-1,-7.919676E-1,-9.8435245E-2,-7.8340673E-1,-1.8419935E-1,-8.2066536E-1,4.665873E-1,-9.232445E-2,5.127121E-1,-5.0427157E-1,2.3102538E-1,1.1835501E0,1.1203377E-1,4.8449647E-1,-9.7191244E-1,-2.0571426E-2,-1.0307618E-1,-1.2000645E0,3.3261366E-2,1.0012075E0,-5.2408278E-2,4.9469545E-2,-2.911437E-2,6.704023E-2,9.3635246E-2,6.035186E-3,5.4499097E-3,-5.7593938E-2,5.340039E-3,4.5899622E-2,8.7777786E-2,-6.558346E-2,-8.852675E-2,-3.2236704E-4,-3.5634335E-2,-8.62204E-2,-5.189702E-2,4.3404948E-2,-9.3157075E-2,-1.1243023E-2,2.1999182E-2,1.1104484E-1,4.5209188E-2,-6.1762232E-2,7.447242E-2,-2.2554828E-2,4.9084842E-2,-8.0518596E-2,8.600124E-2,-6.446412E-2,1.6033545E-1,5.9981614E-2,1.6284501E-2,-1.3399667E-1,1.5870449E-1,2.2889966E-2,-2.4381451E-2,-1.11836076E-1,-1.0178224E-1,9.446371E-3,-8.655711E-2,-1.8386538E-1,1.9376995E-2,-2.6353968E-2,1.311662E-1,-2.1372162E-2],"categories":[],"categories_nodes":[],"categories_segments":[],"categories_sizes":[],"default_left":[0,0,0,0,0,0,0,0,0,0,0,0,0,0,0,0,0,0,0,0,0,0,0,0,0,0,0,0,0,0,0,0,0,0,0,0,0,0,0,0,0,0,0,0,0,0,0,0,0,0,0,0,0,0,0,0,0,0,0,0,0,0,0,0,0,0,0,0,0,0,0,0,0,0,0,0,0,0,0,0,0,0,0,0,0,0,0,0,0,0,0,0,0,0,0,0,0,0,0,0,0,0,0],"id":13,"left_children":[1,3,5,7,9,11,13,15,17,19,21,23,25,27,29,-1,31,33,35,37,39,41,43,-1,-1,45,47,49,51,53,55,57,-1,59,61,63,65,67,69,-1,71,73,75,77,79,81,83,85,87,89,91,93,-1,95,97,99,101,-1,-1,-1,-1,-1,-1,-1,-1,-1,-1,-1,-1,-1,-1,-1,-1,-1,-1,-1,-1,-1,-1,-1,-1,-1,-1,-1,-1,-1,-1,-1,-1,-1,-1,-1,-1,-1,-1,-1,-1,-1,-1,-1,-1,-1,-1],"loss_changes":[7.481621E1,8.563046E1,7.387685E0,6.62245E1,3.440706E1,2.9431858E0,7.678358E0,1.9687653E0,1.4360599E1,1.0871277E0,6.893593E0,4.305849E-1,3.321477E0,6.2797165E0,1.52767935E1,0E0,2.0661511E0,6.0061836E0,2.0453674E1,2.1445405E0,1.2348938E0,4.323586E0,2.3117518E0,0E0,0E0,3.3398578E0,1.7178502E0,5.510146E0,1.751399E-1,2.0047703E1,1.0273175E1,2.515324E0,0E0,1.0605029E1,1.1989784E1,1.4772107E1,4.574048E0,3.2010891E0,6.918726E-1,0E0,1.9924393E0,7.1979427E0,1.1890392E0,2.3225543E0,4.320907E0,1.3797088E0,2.1767616E0,3.0745106E0,5.536909E-1,1.0292966E1,1.5620522E1,2.0216465E-1,0E0,1.0468564E1,3.4865913E0,7.2366114E0,4.745332E0,0E0,0E0,0E0,0E0,0E0,0E0,0E0,0E0,0E0,0E0,0E0,0E0,0E0,0E0,0E0,0E0,0E0,0E0,0E0,0E0,0E0,0E0,0E0,0E0,0E0,0E0,0E0,0E0,0E0,0E0,0E0,0E0,0E0,0E0,0E0,0E0,0E0,0E0,0E0,0E0,0E0,0E0,0E0,0E0,0E0,0E0],"parents":[2147483647,0,0,1,1,2,2,3,3,4,4,5,5,6,6,7,7,8,8,9,9,10,10,11,11,12,12,13,13,14,14,16,16,17,17,18,18,19,19,20,20,21,21,22,22,25,25,26,26,27,27,28,28,29,29,30,30,31,31,33,33,34,34,35,35,36,36,37,37,38,38,40,40,41,41,42,42,43,43,44,44,45,45,46,46,47,47,48,48,49,49,50,50,51,51,53,53,54,54,55,55,56,56],"right_children":[2,4,6,8,10,12,14,16,18,20,22,24,26,28,30,-1,32,34,36,38,40,42,44,-1,-1,46,48,50,52,54,56,58,-1,60,62,64,66,68,70,-1,72,74,76,78,80,82,84,86,88,90,92,94,-1,96,98,100,102,-1,-1,-1,-1,-1,-1,-1,-1,-1,-1,-1,-1,-1,-1,-1,-1,-1,-1,-1,-1,-1,-1,-1,-1,-1,-1,-1,-1,-1,-1,-1,-1,-1,-1,-1,-1,-1,-1,-1,-1,-1,-1,-1,-1,-1,-1],"split_conditions":[2.4711E2,2.345E1,2.7393E2,6.29E0,2.2E1,2E0,2.644E3,2.2E1,3E0,2.542E1,1.0064E2,8.9656967E-1,2.1E1,1.2657597E0,9.772E3,-9.633204E-2,1.923E3,9.98E0,2.2E1,8E0,1.0854E2,5.238E1,3.343E3,1.6813664E-1,3.8600735E-2,9E0,5.76E3,1.363E3,1.507E3,5.791E3,1.1473761E0,4.48E0,-8.75969E-2,9.772E3,3.279E3,1.2E1,1.842E1,1.493E3,1.58701E5,-9.8435245E-2,3E0,4.83E1,9.211E1,1.0501647E0,2.3E1,1.03927E5,5.68E2,7.57597E-1,4.5303E4,1.274E3,1.493E3,1.37E2,-2.0571426E-2,3.224E3,7.646E3,2.2E1,1.2923226E0,-5.2408278E-2,4.9469545E-2,-2.911437E-2,6.704023E-2,9.3635246E-2,6.035186E-3,5.4499097E-3,-5.7593938E-2,5.340039E-3,4.5899622E-2,8.7777786E-2,-6.558346E-2,-8.852675E-2,-3.2236704E-4,-3.5634335E-2,-8.62204E-2,-5.189702E-2,4.3404948E-2,-9.3157075E-2,-1.1243023E-2,2.1999182E-2,1.1104484E-1,4.5209188E-2,-6.1762232E-2,7.447242E-2,-2.2554828E-2,4.9084842E-2,-8.0518596E-2,8.600124E-2,-6.446412E-2,1.6033545E-1,5.9981614E-2,1.6284501E-2,-1.3399667E-1,1.5870449E-1,2.2889966E-2,-2.4381451E-2,-1.11836076E-1,-1.0178224E-1,9.446371E-3,-8.655711E-2,-1.8386538E-1,1.9376995E-2,-2.6353968E-2,1.311662E-1,-2.1372162E-2],"split_indices":[0,0,0,0,1,1,2,1,1,0,0,3,1,3,2,0,2,0,1,1,0,0,2,0,0,1,2,2,2,2,3,0,0,2,2,1,0,2,2,0,1,0,0,3,1,2,2,3,2,2,2,2,0,2,2,1,3,0,0,0,0,0,0,0,0,0,0,0,0,0,0,0,0,0,0,0,0,0,0,0,0,0,0,0,0,0,0,0,0,0,0,0,0,0,0,0,0,0,0,0,0,0,0],"split_type":[0,0,0,0,0,0,0,0,0,0,0,0,0,0,0,0,0,0,0,0,0,0,0,0,0,0,0,0,0,0,0,0,0,0,0,0,0,0,0,0,0,0,0,0,0,0,0,0,0,0,0,0,0,0,0,0,0,0,0,0,0,0,0,0,0,0,0,0,0,0,0,0,0,0,0,0,0,0,0,0,0,0,0,0,0,0,0,0,0,0,0,0,0,0,0,0,0,0,0,0,0,0,0],"sum_hessian":[1.3013214E3,8.42925E2,4.5839642E2,4.6305222E2,3.798728E2,2.2816193E1,4.3558023E2,9.12784E1,3.717738E2,3.0341293E2,7.645987E1,3.0328832E0,1.978331E1,1.957345E2,2.3984575E2,7.6107735E1,1.5170658E1,1.0934708E2,2.6242673E2,1.190628E1,2.9150665E2,4.816042E1,2.8299446E1,1.9314041E0,1.1014789E0,1.1023826E1,8.759483E0,1.9127394E2,4.4605546E0,7.9175E1,1.6067075E2,8.2559395E0,6.914718E0,4.651665E1,6.283042E1,1.5151501E2,1.1091172E2,3.4657485E0,8.440531E0,2.2416841E2,6.733826E1,3.2689075E1,1.5471347E1,1.5166731E1,1.3132715E1,6.074379E0,4.949446E0,3.5755072E0,5.1839767E0,1.3555518E2,5.571877E1,3.4531798E0,1.007375E0,5.6401672E1,2.277333E1,1.4983289E2,1.08378525E1,5.253209E0,3.0027308E0,2.8883488E1,1.7633165E1,3.491693E1,2.791349E1,6.3572124E1,8.7942894E1,5.774414E1,5.316758E1,1.6325572E0,1.8331913E0,7.4382854E0,1.0022455E0,1.134939E1,5.5988865E1,2.131043E1,1.1378643E1,1.3103999E1,2.367348E0,1.1936708E1,3.2300224E0,6.5174356E0,6.6152797E0,4.615208E0,1.4591709E0,1.0026168E0,3.9468296E0,2.0912497E0,1.4842575E0,1.9993683E0,3.1846082E0,1.3182979E2,3.725397E0,9.505678E0,4.621309E1,1.024503E0,2.4286766E0,9.279356E0,4.7122314E1,1.6490854E1,6.282476E0,9.746917E1,5.236372E1,8.568658E0,2.2691946E0],"tree_param":{"num_deleted":"0","num_feature":"4","num_nodes":"103","size_leaf_vector":"1"}},{"base_weights":[-2.3129028E-1,-4.0611452E-1,6.1821584E-2,-1.4186957E-1,-8.0968714E-1,7.5895734E-2,-7.666182E-1,-8.8416636E-1,1.6130192E-2,-9.469463E-1,-2.251656E-1,4.8741415E-2,6.2094325E-1,-1.0855292E0,-1.045481E-1,-9.5925234E-2,-4.8675257E-1,2.3772551E-1,-1.355256E-1,-9.9098764E-2,-8.222229E-1,3.967114E-2,-5.411784E-1,7.784293E-2,-4.6552724E-1,9.668912E-1,1.520188E-1,-2.56333E-2,-1.375076E-1,8.520881E-2,-8.821716E-2,-1.2920716E-1,-8.65813E-2,2.89964E-1,-1.3220334E-1,-4.9426836E-1,1.946239E-1,-5.251983E-1,-8.957938E-1,-8.0557786E-2,1.8065047E-1,-9.341016E-2,-1.2324795E-1,1.8448025E-1,-5.1697608E-2,-7.148586E-1,-2.7362134E-2,1.1499648E0,-1.1905176E-2,-3.3372825E-1,5.87509E-1,-5.025494E-2,4.4011835E-2,2.2840098E-2,1.0496422E-1,4.0283024E-2,-9.0884216E-2,-6.8512045E-2,-1.15759615E-2,-7.549326E-2,2.232603E-2,-9.024444E-2,3.3085886E-3,-9.115117E-2,-1.0429051E-2,9.575312E-2,-5.556216E-3,4.25054E-2,-4.1406732E-2,1.2757868E-2,5.3343177E-2,-8.602963E-2,1.0714084E-2,3.402651E-2,-9.346534E-2,-4.2859912E-2,6.16647E-2,2.2655632E-2,1.4256698E-1,-9.067812E-2,6.9471605E-2,1.1848495E-1,1.8843299E-2],"categories":[],"categories_nodes":[],"categories_segments":[],"categories_sizes":[],"default_left":[0,0,0,0,0,0,0,0,0,0,0,0,0,0,0,0,0,0,0,0,0,0,0,0,0,0,0,0,0,0,0,0,0,0,0,0,0,0,0,0,0,0,0,0,0,0,0,0,0,0,0,0,0,0,0,0,0,0,0,0,0,0,0,0,0,0,0,0,0,0,0,0,0,0,0,0,0,0,0,0,0,0,0],"id":14,"left_children":[1,3,5,7,9,11,13,15,17,19,21,23,25,27,29,-1,31,33,35,-1,37,39,41,43,45,47,49,-1,-1,-1,-1,51,-1,53,55,57,59,61,63,-1,65,-1,67,69,71,73,75,77,-1,79,81,-1,-1,-1,-1,-1,-1,-1,-1,-1,-1,-1,-1,-1,-1,-1,-1,-1,-1,-1,-1,-1,-1,-1,-1,-1,-1,-1,-1,-1,-1,-1,-1],"loss_changes":[6.5112045E1,8.474573E1,5.601257E0,5.6556007E1,2.5031784E1,6.901903E0,1.5823488E0,2.0583115E0,1.3423386E1,5.831604E-1,5.139134E0,6.7295594E0,3.444975E0,9.233937E-1,3.517261E0,0E0,1.9858966E0,3.1740627E0,2.8190594E1,0E0,1.1091995E0,4.2208843E0,4.4745035E0,5.868534E0,2.6128902E0,2.632985E0,2.4355795E0,0E0,0E0,0E0,0E0,2.1640239E0,0E0,6.4247713E0,8.994771E0,8.153278E0,3.546955E0,3.561355E0,6.0809326E-1,0E0,5.581956E0,0E0,2.5193002E0,4.555465E0,2.4788641E1,3.8703074E0,2.791088E0,2.436181E0,0E0,3.9552996E0,1.193795E0,0E0,0E0,0E0,0E0,0E0,0E0,0E0,0E0,0E0,0E0,0E0,0E0,0E0,0E0,0E0,0E0,0E0,0E0,0E0,0E0,0E0,0E0,0E0,0E0,0E0,0E0,0E0,0E0,0E0,0E0,0E0,0E0],"parents":[2147483647,0,0,1,1,2,2,3,3,4,4,5,5,6,6,7,7,8,8,9,9,10,10,11,11,12,12,13,13,14,14,16,16,17,17,18,18,20,20,21,21,22,22,23,23,24,24,25,25,26,26,31,31,33,33,34,34,35,35,36,36,37,37,38,38,40,40,42,42,43,43,44,44,45,45,46,46,47,47,49,49,50,50],"right_children":[2,4,6,8,10,12,14,16,18,20,22,24,26,28,30,-1,32,34,36,-1,38,40,42,44,46,48,50,-1,-1,-1,-1,52,-1,54,56,58,60,62,64,-1,66,-1,68,70,72,74,76,78,-1,80,82,-1,-1,-1,-1,-1,-1,-1,-1,-1,-1,-1,-1,-1,-1,-1,-1,-1,-1,-1,-1,-1,-1,-1,-1,-1,-1,-1,-1,-1,-1,-1,-1],"split_conditions":[2.1812E2,2.679E1,1.2923226E0,6.29E0,2.2E1,1.1746889E0,5.657E3,2.2E1,6E0,9.607E1,2.036E3,1.113497E0,1.2239655E0,1.126E3,2.3727E4,-9.5925234E-2,1.923E3,1.903E1,2.2E1,-9.9098764E-2,4E0,4.502E1,9.211E1,5.211E3,1.1473761E0,9.3583E2,1.4E1,-2.56333E-2,-1.375076E-1,8.520881E-2,-8.821716E-2,4.48E0,-8.65813E-2,1.718E1,2.148E3,1.777E1,2.241881E-1,2.691E3,1.312922E6,-8.0557786E-2,5.033E1,-9.341016E-2,6.708567E-1,2.3E1,9.772E3,3.46E2,9.772E3,3E0,-1.1905176E-2,2.702E4,3.5827E2,-5.025494E-2,4.4011835E-2,2.2840098E-2,1.0496422E-1,4.0283024E-2,-9.0884216E-2,-6.8512045E-2,-1.15759615E-2,-7.549326E-2,2.232603E-2,-9.024444E-2,3.3085886E-3,-9.115117E-2,-1.0429051E-2,9.575312E-2,-5.556216E-3,4.25054E-2,-4.1406732E-2,1.2757868E-2,5.3343177E-2,-8.602963E-2,1.0714084E-2,3.402651E-2,-9.346534E-2,-4.2859912E-2,6.16647E-2,2.2655632E-2,1.4256698E-1,-9.067812E-2,6.9471605E-2,1.1848495E-1,1.8843299E-2],"split_indices":[0,0,3,0,1,3,2,1,1,0,2,3,3,2,2,0,2,0,1,0,1,0,0,2,3,0,1,0,0,0,0,0,0,0,2,0,3,2,2,0,0,0,3,1,2,2,2,1,0,2,0,0,0,0,0,0,0,0,0,0,0,0,0,0,0,0,0,0,0,0,0,0,0,0,0,0,0,0,0,0,0,0,0],"split_type":[0,0,0,0,0,0,0,0,0,0,0,0,0,0,0,0,0,0,0,0,0,0,0,0,0,0,0,0,0,0,0,0,0,0,0,0,0,0,0,0,0,0,0,0,0,0,0,0,0,0,0,0,0,0,0,0,0,0,0,0,0,0,0,0,0,0,0,0,0,0,0,0,0,0,0,0,0,0,0,0,0,0,0],"sum_hessian":[1.269161E3,7.9475195E2,4.7440903E2,4.810978E2,3.1365414E2,4.6737726E2,7.031767E0,8.362487E1,3.9747296E2,2.535052E2,6.014894E1,4.462352E2,2.1142057E1,4.314113E0,2.7176538E0,6.9146774E1,1.4478089E1,1.6126678E2,2.3620616E2,1.822169E2,7.128831E1,3.319995E1,2.694899E1,4.231392E2,2.3096033E1,1.1555258E1,9.5868E0,1.6044947E0,2.7096183E0,1.1756295E0,1.5420241E0,8.140498E0,6.337591E0,1.4150124E2,1.9765545E1,1.1296285E2,1.2324332E2,1.5767903E1,5.552041E1,4.071986E0,2.9127966E1,1.3253482E1,1.3695509E1,2.3185382E2,1.9128535E2,1.43174305E1,8.778604E0,9.837798E0,1.7174596E0,4.6423645E0,4.944435E0,4.9873023E0,3.1531956E0,1.3209698E2,9.404258E0,1.1988129E1,7.7774158E0,7.455871E1,3.8404137E1,2.8654358E0,1.20377884E2,9.041727E0,6.7261753E0,5.429067E1,1.229739E0,6.0794744E0,2.304849E1,4.5865655E0,9.108943E0,2.005215E2,3.1332315E1,3.0681078E1,1.6060428E2,2.37382E0,1.194361E1,5.6148605E0,3.1637433E0,2.6808066E0,7.1569915E0,3.057187E0,1.5851775E0,1.1917025E0,3.7527328E0],"tree_param":{"num_deleted":"0","num_feature":"4","num_nodes":"83","size_leaf_vector":"1"}},{"base_weights":[-2.1514376E-1,-3.793486E-1,6.205348E-2,-1.14414215E-1,-7.4093294E-1,5.416092E-1,3.4730554E-2,-8.7348634E-1,4.3468263E-2,-9.121991E-1,-1.5071261E-1,-5.5869367E-2,6.186923E-1,-1.07003614E-1,1.2511367E-1,-9.548441E-2,-4.6494675E-1,-7.52522E-2,2.807246E-1,-5.16969E-1,-9.281765E-1,-3.6873567E-1,1.9688573E-1,1.3021394E0,4.4758302E-1,-4.3192866E-1,3.3167106E-1,6.272524E-1,-6.337063E-2,-1.1931209E-1,-8.5514985E-2,2.0832737E-1,-4.5078966E-1,5.9806395E-1,-8.786183E-2,1.0458421E-1,-7.742541E-1,-9.8019934E-1,-7.4953324E-1,-1.6296585E-1,-7.9989415E-1,4.8160353E-1,-5.5451937E-2,1.521683E0,3.6876094E-2,8.4026836E-2,8.3303976E-1,1.7950673E-1,-5.7743317E-1,1.5880643E0,1.3537033E-1,9.257055E-1,4.9012652E-1,2.9096878E-1,-3.9483404E-1,-4.8119847E-2,3.927177E-2,1.0575751E-2,6.5570466E-2,-7.902169E-2,-5.803045E-4,1.5278487E-1,4.1479662E-2,-8.973538E-2,2.0115476E-2,7.415258E-2,-6.2491905E-2,-8.737608E-2,-7.261113E-4,-9.853434E-2,-4.6517115E-2,-3.1125775E-2,-8.380457E-2,-4.835533E-2,3.634083E-2,-9.2202805E-2,-1.00877825E-2,-4.4423297E-2,7.237074E-2,5.0239112E-2,-3.8389683E-2,3.8578168E-2,1.9467029E-1,4.892638E-2,-4.6122424E-2,1.9862603E-2,1.1769028E-1,-2.9568529E-2,9.927243E-2,-6.7967504E-2,-1.0381277E-2,1.9989243E-1,3.3515036E-2,4.071955E-3,6.6608444E-2,1.09348E-1,-6.7978226E-2,3.7093427E-2,1.7333943E-1,-6.528558E-2,6.188748E-2,3.457022E-2,-7.471344E-2],"categories":[],"categories_nodes":[],"categories_segments":[],"categories_sizes":[],"default_left":[0,0,0,0,0,0,0,0,0,0,0,0,0,0,0,0,0,0,0,0,0,0,0,0,0,0,0,0,0,0,0,0,0,0,0,0,0,0,0,0,0,0,0,0,0,0,0,0,0,0,0,0,0,0,0,0,0,0,0,0,0,0,0,0,0,0,0,0,0,0,0,0,0,0,0,0,0,0,0,0,0,0,0,0,0,0,0,0,0,0,0,0,0,0,0,0,0,0,0,0,0,0,0],"id":15,"left_children":[1,3,5,7,9,11,13,15,17,19,21,-1,23,25,27,-1,29,31,33,35,37,39,41,43,45,47,49,51,53,55,-1,57,59,61,63,65,67,69,71,73,75,77,79,81,-1,83,85,87,89,91,93,95,97,99,101,-1,-1,-1,-1,-1,-1,-1,-1,-1,-1,-1,-1,-1,-1,-1,-1,-1,-1,-1,-1,-1,-1,-1,-1,-1,-1,-1,-1,-1,-1,-1,-1,-1,-1,-1,-1,-1,-1,-1,-1,-1,-1,-1,-1,-1,-1,-1,-1],"loss_changes":[5.6502262E1,7.457571E1,6.040675E0,5.4085487E1,3.3158524E1,2.4541335E0,5.631956E0,2.138565E0,1.0563638E1,1.1311188E0,5.7776856E0,0E0,2.1895475E0,2.4562824E1,2.5430569E1,0E0,1.9010885E0,2.6743826E1,1.4677777E1,2.0270529E0,1.5323334E0,4.004954E0,2.1583E0,3.0424452E-1,2.8004837E0,8.898502E0,1.7904009E1,2.5464973E0,2.3131056E1,1.8637182E0,0E0,6.5046644E0,1.6305143E1,1.0837118E1,1.3918352E1,2.5281382E0,6.5960884E-1,3.353882E-2,2.0382195E0,5.712128E0,1.1707382E0,3.4693263E0,3.2390609E0,7.451625E-1,0E0,2.8005645E0,1.9107046E0,7.931646E0,3.807705E0,4.3924217E0,3.2194948E0,6.6566677E0,7.115471E0,2.989486E1,2.67844E1,0E0,0E0,0E0,0E0,0E0,0E0,0E0,0E0,0E0,0E0,0E0,0E0,0E0,0E0,0E0,0E0,0E0,0E0,0E0,0E0,0E0,0E0,0E0,0E0,0E0,0E0,0E0,0E0,0E0,0E0,0E0,0E0,0E0,0E0,0E0,0E0,0E0,0E0,0E0,0E0,0E0,0E0,0E0,0E0,0E0,0E0,0E0,0E0],"parents":[2147483647,0,0,1,1,2,2,3,3,4,4,5,5,6,6,7,7,8,8,9,9,10,10,12,12,13,13,14,14,16,16,17,17,18,18,19,19,20,20,21,21,22,22,23,23,24,24,25,25,26,26,27,27,28,28,29,29,31,31,32,32,33,33,34,34,35,35,36,36,37,37,38,38,39,39,40,40,41,41,42,42,43,43,45,45,46,46,47,47,48,48,49,49,50,50,51,51,52,52,53,53,54,54],"right_children":[2,4,6,8,10,12,14,16,18,20,22,-1,24,26,28,-1,30,32,34,36,38,40,42,44,46,48,50,52,54,56,-1,58,60,62,64,66,68,70,72,74,76,78,80,82,-1,84,86,88,90,92,94,96,98,100,102,-1,-1,-1,-1,-1,-1,-1,-1,-1,-1,-1,-1,-1,-1,-1,-1,-1,-1,-1,-1,-1,-1,-1,-1,-1,-1,-1,-1,-1,-1,-1,-1,-1,-1,-1,-1,-1,-1,-1,-1,-1,-1,-1,-1,-1,-1,-1,-1],"split_conditions":[2.4711E2,2.345E1,2.7393E2,6.29E0,2.2E1,2.5575173E-1,4E0,2.2E1,1.718E1,2.542E1,1.0064E2,-5.5869367E-2,2E0,3.5827E2,3.5827E2,-9.548441E-2,1.923E3,9E0,3.43E3,8E0,1.0854E2,5.238E1,1.2701E2,8.9656967E-1,2.1E1,4.8517576E-1,5.1744E2,1.1E1,2.2E1,4.48E0,-8.5514985E-2,1.05638E5,2.2E1,2E0,1.5E1,1.493E3,1.51785E5,1.38248E6,3E0,4.83E1,9.211E1,5.1533943E-1,6.999964E-1,6.518575E-1,3.6876094E-2,9E0,5.76E3,3.812597E-1,1.05638E5,9.503101E-1,2.0741E5,1.129692E0,1.197936E0,6.7179E2,6.7179E2,-4.8119847E-2,3.927177E-2,1.0575751E-2,6.5570466E-2,-7.902169E-2,-5.803045E-4,1.5278487E-1,4.1479662E-2,-8.973538E-2,2.0115476E-2,7.415258E-2,-6.2491905E-2,-8.737608E-2,-7.261113E-4,-9.853434E-2,-4.6517115E-2,-3.1125775E-2,-8.380457E-2,-4.835533E-2,3.634083E-2,-9.2202805E-2,-1.00877825E-2,-4.4423297E-2,7.237074E-2,5.0239112E-2,-3.8389683E-2,3.8578168E-2,1.9467029E-1,4.892638E-2,-4.6122424E-2,1.9862603E-2,1.1769028E-1,-2.9568529E-2,9.927243E-2,-6.7967504E-2,-1.0381277E-2,1.9989243E-1,3.3515036E-2,4.071955E-3,6.6608444E-2,1.09348E-1,-6.7978226E-2,3.7093427E-2,1.7333943E-1,-6.528558E-2,6.188748E-2,3.457022E-2,-7.471344E-2],"split_indices":[0,0,0,0,1,3,1,1,0,0,0,0,1,0,0,0,2,1,2,1,0,0,0,3,1,3,0,1,1,0,0,2,1,1,1,2,2,2,1,0,0,3,3,3,0,1,2,3,2,3,2,3,3,0,0,0,0,0,0,0,0,0,0,0,0,0,0,0,0,0,0,0,0,0,0,0,0,0,0,0,0,0,0,0,0,0,0,0,0,0,0,0,0,0,0,0,0,0,0,0,0,0,0],"split_type":[0,0,0,0,0,0,0,0,0,0,0,0,0,0,0,0,0,0,0,0,0,0,0,0,0,0,0,0,0,0,0,0,0,0,0,0,0,0,0,0,0,0,0,0,0,0,0,0,0,0,0,0,0,0,0,0,0,0,0,0,0,0,0,0,0,0,0,0,0,0,0,0,0,0,0,0,0,0,0,0,0,0,0,0,0,0,0,0,0,0,0,0,0,0,0,0,0,0,0,0,0,0,0],"sum_hessian":[1.2398235E3,7.783685E2,4.6145496E2,4.4998154E2,3.28387E2,2.3859777E1,4.3759518E2,7.669801E1,3.7328354E2,2.5410655E2,7.428043E1,1.1530399E0,2.2706738E1,1.7032162E2,2.6727356E2,6.2845547E1,1.38524685E1,2.4924628E2,1.2403726E2,1.1169351E1,2.429372E2,4.561111E1,2.8669327E1,3.2230792E0,1.948366E1,9.785563E1,7.2465996E1,7.230876E1,1.9496478E2,8.038174E0,5.814295E0,1.4226384E2,1.0698243E2,6.6317635E1,5.7719624E1,3.4436457E0,7.725705E0,1.8467186E2,5.8265347E1,3.180851E1,1.3802599E1,1.3043504E1,1.5625823E1,2.0990562E0,1.124023E0,1.0653477E1,8.830183E0,1.8765604E1,7.909003E1,8.834183E0,6.3631817E1,2.095331E1,5.1355453E1,9.4289764E1,1.0067502E2,4.744867E0,3.293307E0,1.1673621E2,2.5527634E1,6.024947E1,4.673296E1,9.711383E0,5.6606255E1,1.46321945E1,4.308743E1,1.8296591E0,1.6139865E0,6.715287E0,1.010418E0,1.819415E2,2.7303627E0,1.0548803E1,4.7716545E1,1.9819078E1,1.1989432E1,1.1478083E1,2.3245163E0,2.53074E0,1.0512764E1,5.5944295E0,1.0031393E1,1.0909855E0,1.0080708E0,6.1703105E0,4.4831657E0,3.658333E0,5.1718497E0,1.2246145E1,6.519459E0,6.469012E1,1.4399909E1,6.2042446E0,2.629938E0,5.4914715E1,8.717099E0,1.9259583E1,1.6937277E0,4.8047485E1,3.3079667E0,2.4056377E1,7.023338E1,3.2460884E1,6.8214134E1],"tree_param":{"num_deleted":"0","num_feature":"4","num_nodes":"103","size_leaf_vector":"1"}},{"base_weights":[-1.975313E-1,-3.6155805E-1,5.0608866E-2,-1.21133484E-1,-7.7782696E-1,6.522913E-2,-6.6395426E-1,-8.6206764E-1,1.1950806E-2,-9.354405E-1,-2.0448561E-1,7.801928E-2,-6.9385844E-1,4.7894478E-1,-1.2650044E-1,-9.5006496E-2,-4.4361567E-1,3.0094495E-1,-6.595196E-2,-9.882955E-2,-7.912612E-1,-8.0982274E-1,-7.5350985E-2,5.452023E-2,5.3730863E-1,-9.8741776E-1,-7.968238E-2,-7.315345E-2,1.4965403E-1,-1.1034497E-1,-8.439858E-2,2.2594103E-1,1.5721306E0,-2.1721734E-1,1.5650968E-1,-4.752907E-1,-8.754989E-1,-1.8999343E-3,-8.954952E-2,1.8692662E-1,-4.1786104E-1,7.7851705E-2,-3.6599302E-1,2.8755438E-1,1.0437002E0,-2.3360541E-2,-1.24734394E-1,8.2028165E-2,-8.294525E-2,-4.601018E-2,3.513464E-2,1.2167809E-1,1.6279796E-2,2.2422771E-1,-1.3050283E-2,5.2519604E-3,-5.4402184E-2,1.2786955E-1,1.3217986E-2,-8.879738E-2,7.956102E-3,-5.5290842E-3,-8.939969E-2,1.0168345E-1,-4.3411106E-3,-8.8343106E-2,-1.3127035E-2,5.673745E-3,5.321678E-2,-5.8179505E-2,1.1836141E-3,-8.06276E-3,1.029709E-1,1.438896E-1,-3.5985857E-3],"categories":[],"categories_nodes":[],"categories_segments":[],"categories_sizes":[],"default_left":[0,0,0,0,0,0,0,0,0,0,0,0,0,0,0,0,0,0,0,0,0,0,0,0,0,0,0,0,0,0,0,0,0,0,0,0,0,0,0,0,0,0,0,0,0,0,0,0,0,0,0,0,0,0,0,0,0,0,0,0,0,0,0,0,0,0,0,0,0,0,0,0,0,0,0],"id":16,"left_children":[1,3,5,7,9,11,13,15,17,19,21,23,25,27,-1,-1,29,31,33,-1,35,37,39,41,43,45,47,-1,-1,49,-1,51,53,55,57,59,61,-1,-1,63,65,67,69,71,73,-1,-1,-1,-1,-1,-1,-1,-1,-1,-1,-1,-1,-1,-1,-1,-1,-1,-1,-1,-1,-1,-1,-1,-1,-1,-1,-1,-1,-1,-1],"loss_changes":[4.990548E1,7.376867E1,5.1483E0,4.6257915E1,2.4209259E1,4.7120905E0,7.3976445E0,2.208725E0,8.993306E0,8.2987976E-1,4.5903206E0,5.0726376E0,1.3728659E0,6.185604E0,0E0,0E0,1.813194E0,7.7309313E0,1.0626309E1,0E0,1.2276077E0,6.848402E-1,4.582657E0,4.4515533E0,2.595582E0,7.587204E-1,3.1712215E0,0E0,0E0,1.6064465E0,0E0,4.885465E0,5.4927073E0,1.658226E1,3.325294E0,3.5479474E0,6.7230225E-1,0E0,0E0,5.604745E0,2.8267674E0,4.0748806E0,1.9534369E0,4.649977E0,3.1163154E0,0E0,0E0,0E0,0E0,0E0,0E0,0E0,0E0,0E0,0E0,0E0,0E0,0E0,0E0,0E0,0E0,0E0,0E0,0E0,0E0,0E0,0E0,0E0,0E0,0E0,0E0,0E0,0E0,0E0,0E0],"parents":[2147483647,0,0,1,1,2,2,3,3,4,4,5,5,6,6,7,7,8,8,9,9,10,10,11,11,12,12,13,13,16,16,17,17,18,18,20,20,21,21,22,22,23,23,24,24,25,25,26,26,29,29,31,31,32,32,33,33,34,34,35,35,36,36,39,39,40,40,41,41,42,42,43,43,44,44],"right_children":[2,4,6,8,10,12,14,16,18,20,22,24,26,28,-1,-1,30,32,34,-1,36,38,40,42,44,46,48,-1,-1,50,-1,52,54,56,58,60,62,-1,-1,64,66,68,70,72,74,-1,-1,-1,-1,-1,-1,-1,-1,-1,-1,-1,-1,-1,-1,-1,-1,-1,-1,-1,-1,-1,-1,-1,-1,-1,-1,-1,-1,-1,-1],"split_conditions":[2.1812E2,2.679E1,1.312922E6,6.29E0,2.2E1,1.2923226E0,6.083613E-1,2.2E1,2E0,9.607E1,4.83E1,1.1746889E0,5.657E3,1.577385E6,-1.2650044E-1,-9.5006496E-2,1.923E3,1.2063708E0,2.2E1,-9.882955E-2,4E0,2.58E2,2.036E3,1.113497E0,1.8408E4,1.126E3,2.3727E4,-7.315345E-2,1.4965403E-1,4.48E0,-8.439858E-2,9.9E1,4.474E3,1.2E1,6.3E1,2.691E3,1.7444967E-1,-1.8999343E-3,-8.954952E-2,5.033E1,9.211E1,1.0665414E0,1.1473761E0,2.2E1,2E1,-2.3360541E-2,-1.24734394E-1,8.2028165E-2,-8.294525E-2,-4.601018E-2,3.513464E-2,1.2167809E-1,1.6279796E-2,2.2422771E-1,-1.3050283E-2,5.2519604E-3,-5.4402184E-2,1.2786955E-1,1.3217986E-2,-8.879738E-2,7.956102E-3,-5.5290842E-3,-8.939969E-2,1.0168345E-1,-4.3411106E-3,-8.8343106E-2,-1.3127035E-2,5.673745E-3,5.321678E-2,-5.8179505E-2,1.1836141E-3,-8.06276E-3,1.029709E-1,1.438896E-1,-3.5985857E-3],"split_indices":[0,0,2,0,1,3,3,1,1,0,0,3,2,2,0,0,2,3,1,0,1,2,2,3,2,2,2,0,0,0,0,2,2,1,2,2,3,0,0,0,0,3,3,1,1,0,